5853 50
</s> 0.008005 0.008839 -0.007661 -0.006556 0.002733 0.006042 0.001882 0.000423 -0.007207 0.004437 -0.008713 0.002499 -0.001503 -0.001914 -0.006631 -0.003764 0.005159 0.006051 0.005938 0.003195 0.003090 -0.007605 -0.008192 0.009939 0.007603 0.006180 -0.001208 0.008031 -0.000990 0.001469 -0.000298 -0.005966 0.002625 -0.002675 -0.007651 0.009508 0.008759 -0.002190 -0.000452 0.001018 -0.007275 -0.008014 0.009109 0.000126 -0.005165 -0.006084 -0.006153 0.003394 0.000403 0.002662 
dd153 0.390582 0.390028 -0.101566 -0.132010 -0.225523 0.489760 -0.716326 0.200065 0.507386 -0.208523 0.381316 -0.008797 0.713209 0.900675 -0.338698 -0.672763 -0.397843 -0.364044 -0.333641 0.457471 0.354446 -0.591182 0.478488 -0.183803 0.645296 0.300638 -0.506242 -0.253878 0.356281 -0.022324 -0.036291 -0.609535 0.318212 -0.083908 0.756153 0.226666 0.003815 0.045898 -0.660563 0.016709 0.195354 -0.247628 0.084844 -0.622380 -0.915334 0.920349 0.151839 0.029725 -0.619855 0.616900 
mm35 0.165169 -0.121948 0.251687 0.035595 0.083300 -0.111396 0.275789 -0.030407 -0.346024 0.087174 0.082528 -0.239175 -0.160175 -0.297158 0.351213 0.266598 0.171357 0.237614 0.252481 -0.021448 -0.290170 0.005209 -0.051410 0.054598 -0.383612 -0.139257 0.294361 -0.125290 -0.139637 0.070787 0.063855 0.207349 -0.113698 -0.115743 -0.444945 0.044542 -0.158406 -0.350652 -0.121201 -0.048968 0.032988 -0.042721 0.129947 0.227019 0.247389 -0.128420 -0.200109 0.153951 0.101842 0.058121 
dd78 0.518635 0.041288 -0.317152 0.239351 -0.154678 -0.065115 -0.602532 0.251814 0.659215 0.524452 0.070846 0.344629 0.123900 0.715716 -0.665726 -0.652684 -0.218861 -0.600596 -0.557963 0.445351 0.483033 -0.130585 0.494861 -0.125769 0.608355 0.482258 -0.369267 -0.018614 0.607068 0.032760 0.086102 -0.357147 0.447225 0.364510 0.959710 0.002085 -0.081636 0.513143 -0.349543 0.101884 0.265937 -0.334613 0.020737 -0.798501 -0.755638 0.307328 0.260509 -0.244333 -0.457539 0.412999 
mm651 0.005108 -0.326062 0.229762 0.039798 -0.027169 -0.184234 0.401962 -0.093209 -0.128945 0.040723 0.045351 -0.153521 -0.058171 -0.228938 0.080840 0.306814 0.221149 0.144986 0.210634 -0.056553 -0.180825 0.244443 -0.178202 0.209135 -0.294346 -0.053764 0.344733 -0.148089 -0.301429 0.272247 0.013558 0.215312 -0.123717 0.046413 -0.389306 -0.107002 -0.055423 -0.404495 -0.182743 -0.119436 0.024694 0.057052 0.203359 0.192506 0.318063 -0.068708 -0.100869 0.400628 0.119643 -0.043862 
mm349 0.025844 -0.024779 0.047450 0.030969 0.025036 -0.139776 0.320755 -0.034911 -0.127899 -0.105355 0.002441 -0.152245 -0.280822 -0.245187 0.261208 0.191095 0.174198 0.199647 0.155363 -0.022559 -0.290120 0.154070 -0.199901 0.016448 -0.391310 -0.149164 0.263582 0.017780 -0.344894 0.026885 0.165168 0.115467 -0.066509 -0.034912 -0.295150 0.044139 0.007607 -0.396225 0.061140 -0.063663 -0.014923 0.075743 0.036029 0.267037 0.353954 -0.249732 -0.031388 0.169244 0.087303 -0.042425 
mm325 -0.117241 0.067897 0.152329 -0.000463 0.007202 -0.216322 0.209289 -0.084432 -0.312360 -0.125232 -0.049145 -0.181268 -0.222808 -0.246116 0.184823 0.229192 0.044820 0.100597 0.191902 -0.062255 -0.159737 0.049989 -0.045960 0.112229 -0.461501 -0.088954 0.247717 -0.017365 -0.131808 0.005408 0.034809 0.203601 -0.193135 0.011925 -0.378875 -0.145234 -0.131795 -0.210246 0.006572 0.077108 -0.000894 0.119338 0.134346 0.109930 0.315710 -0.122036 -0.073827 0.209786 0.142119 -0.109380 
mm93 -0.028033 -0.204593 0.055508 0.011623 0.023054 -0.175402 0.359235 0.051078 -0.214858 -0.114863 -0.004313 -0.192798 -0.196587 -0.075432 0.268021 0.348326 0.046875 0.055033 0.035734 -0.152660 -0.119765 0.058594 -0.285878 0.106876 -0.520463 -0.131320 0.384466 0.060707 -0.429586 -0.044732 0.028101 0.183916 -0.158216 -0.091276 -0.190392 -0.037039 -0.114193 -0.269628 0.282344 -0.007833 -0.073588 0.157751 0.037362 0.285248 0.240325 -0.113740 -0.081567 0.233286 0.076517 -0.076876 
mm655 -0.086398 0.029628 0.182503 -0.054252 0.146699 -0.059103 0.186042 0.074440 -0.327587 0.072962 0.088013 -0.133679 -0.352153 -0.347581 0.105467 0.209870 0.031518 0.241297 0.275185 0.180837 -0.442323 0.150131 -0.157679 0.043837 -0.450444 -0.339399 0.156609 0.069700 -0.269052 -0.168727 0.064256 0.224560 -0.069759 0.208311 -0.482678 -0.224841 -0.040301 -0.264293 0.048893 0.009449 -0.179355 -0.011720 0.202041 0.087300 0.265387 -0.214725 -0.053310 0.081583 0.151146 -0.027291 
mm342 -0.033520 0.074453 0.021537 -0.026005 0.026404 -0.176620 0.403833 -0.020182 -0.270355 0.117881 0.094819 -0.054313 -0.152081 -0.189905 0.295145 0.161454 0.060837 0.225076 0.246255 0.024449 -0.210972 0.019815 -0.153622 0.077534 -0.456307 -0.011081 0.286174 -0.093820 -0.196860 0.223195 0.017968 0.241404 -0.218380 -0.088943 -0.376211 -0.168559 -0.010782 -0.315706 0.103680 0.006491 -0.019418 -0.020155 0.130535 0.313738 0.310124 -0.164888 -0.106313 0.228889 0.100885 -0.029804 
mm1241 -0.074106 0.048980 0.168934 0.039615 -0.056037 -0.180562 0.146034 -0.210929 -0.187452 -0.138703 -0.233156 -0.162348 -0.194612 -0.317025 0.205055 0.163580 -0.040153 -0.005227 0.067985 0.093027 -0.175866 -0.043349 -0.020640 0.274991 -0.521431 -0.057320 0.222792 0.100179 -0.073302 -0.080648 -0.108186 0.295992 -0.191972 -0.042672 -0.547013 -0.374799 -0.182134 -0.117814 0.055391 0.005839 0.029267 0.162164 0.273789 0.206091 0.430279 0.018514 -0.141792 0.091410 0.094201 -0.018724 
mm34 -0.021063 -0.002817 0.185455 -0.018982 -0.065213 -0.103245 0.406570 -0.034220 -0.226853 0.021862 -0.022705 -0.153906 -0.157937 -0.168325 0.165089 0.164499 0.158353 0.235593 0.230313 0.052440 -0.185270 0.038296 -0.147559 0.062061 -0.321430 -0.108605 0.339915 -0.064760 -0.222438 0.139717 0.105342 0.206834 -0.150386 -0.067817 -0.351247 -0.055039 -0.032779 -0.413747 0.051274 0.071167 0.011928 0.018757 0.055395 0.208537 0.504239 -0.146290 -0.155598 0.247217 0.031986 -0.038008 
dd425 0.290892 0.006153 -0.283450 0.047789 -0.054378 0.580824 -0.751033 0.520045 0.512160 -0.193995 -0.559345 0.235100 0.497143 0.074327 -0.155481 -0.117991 -0.418605 -0.116447 -0.611537 0.439707 0.525387 -0.214238 0.522975 0.098648 0.785968 0.172871 -0.572943 -0.143317 0.100847 -0.333182 0.567626 -0.057694 0.011868 -0.047686 0.987952 0.111698 0.279673 0.985761 0.270595 0.192835 0.116503 -0.298432 0.098346 -0.361931 -0.715109 0.624017 0.131852 -0.144765 -0.221255 0.204003 
dd36 -0.061294 0.168957 -0.562794 0.173381 0.096985 0.233081 -0.276689 0.101084 0.123330 0.612051 0.258723 0.668094 0.881046 0.458134 -0.362079 -0.355908 -0.479573 -0.228086 -0.155690 0.523115 0.193279 -0.416813 0.171712 -0.108195 0.745880 0.666951 -0.021638 -0.206989 0.776577 0.254489 -0.276737 0.014706 0.108610 -0.043713 0.506212 -0.186822 0.197442 0.624220 -0.062420 0.110378 -0.033425 -0.559132 0.087711 -0.141604 -0.707909 0.094586 0.293981 -0.353020 -0.568110 0.415114 
dd79 0.078269 0.051254 0.001830 0.114677 -0.240284 0.317663 -1.110725 0.089648 0.385302 -0.000089 0.169326 0.391890 0.482187 0.423510 -0.679390 -0.768212 -0.305492 -0.338694 -0.099575 0.202443 0.368060 -0.140263 -0.003369 -0.146897 1.117836 0.097938 -0.356768 0.210880 0.207736 -0.499240 0.105633 -0.183726 0.294236 -0.363933 0.814658 0.263825 0.503836 0.649532 0.148330 0.123362 -0.134716 0.059471 0.161346 -0.319938 -0.518257 0.125154 0.220400 -0.706068 -0.658365 0.095491 
mm46 -0.084429 0.077713 0.133362 -0.138164 0.049553 -0.201306 0.245758 -0.026480 -0.037388 0.015659 -0.035834 -0.175705 0.040978 -0.297112 0.096164 0.121219 0.030324 0.019289 0.311504 -0.047807 -0.277766 0.062981 -0.269032 -0.122106 -0.556261 -0.221209 0.189962 -0.101352 -0.216771 0.099776 -0.015159 0.234913 -0.110437 -0.263678 -0.513837 0.065704 -0.126626 -0.275401 -0.000855 -0.002385 -0.080618 0.180096 0.102979 0.233896 0.470216 -0.423405 -0.263390 0.251472 0.039276 0.058912 
mm837 0.036294 -0.143752 0.249143 -0.136367 -0.001227 -0.186711 0.277370 -0.041316 -0.236416 0.032849 -0.116022 -0.260411 -0.135754 0.002562 0.047760 0.202561 0.160185 0.217465 0.282665 0.076396 -0.447452 0.114690 -0.248094 0.196744 -0.421244 -0.122082 0.161834 0.076499 -0.279819 0.258970 0.010723 0.280938 -0.195108 -0.104211 -0.415461 -0.059664 -0.000161 -0.272839 -0.014326 -0.151692 -0.064020 -0.093115 0.043652 0.232162 0.374033 -0.177634 -0.269809 0.280955 0.136482 -0.022484 
mm1001 0.000237 -0.097222 0.299468 -0.074816 -0.050516 -0.110374 0.190783 0.102878 -0.185030 -0.222182 0.107923 -0.034983 -0.296942 -0.261644 0.082971 0.174287 0.145398 0.201170 0.414688 -0.142825 -0.130447 0.211198 -0.129758 0.086496 -0.071109 -0.213211 0.182019 0.200707 -0.664674 -0.157506 0.148784 0.026068 -0.187661 -0.244329 -0.444400 0.065227 0.112025 -0.220001 0.263663 -0.186824 -0.053286 0.170914 0.269696 0.289069 0.381354 -0.206936 -0.138120 0.042744 0.180080 0.154757 
mm250 -0.053260 -0.032098 0.162254 0.051140 0.026175 -0.258231 0.488731 0.064708 -0.197291 -0.132592 -0.076798 -0.174097 -0.283786 -0.378240 0.196940 0.352814 0.071683 0.139109 0.123008 0.063115 -0.157850 0.268772 -0.045589 0.101345 -0.286978 -0.169064 0.238786 -0.065409 -0.301372 0.146565 0.108858 0.165787 -0.064909 -0.021757 -0.352100 -0.173376 -0.125128 -0.271656 0.072906 -0.074591 -0.011250 -0.043973 0.024099 0.243802 0.466746 -0.107112 -0.187379 0.192934 -0.002619 0.102785 
mm827 -0.029222 -0.053692 -0.091688 -0.016821 0.057665 -0.149011 0.375742 0.152904 -0.312762 -0.051199 -0.067508 -0.225398 -0.148844 -0.266498 0.280891 0.190756 0.246184 0.229000 0.091746 0.021841 -0.164222 0.016369 -0.205155 -0.001059 -0.336147 -0.082663 0.376210 -0.035432 -0.141326 -0.057363 0.199270 0.064401 -0.034308 -0.001006 -0.478417 0.028178 0.066493 -0.353004 0.055557 0.091056 -0.075483 0.025167 0.136994 0.290477 0.459842 -0.099332 -0.200249 0.171389 0.266152 0.043016 
mm167 -0.067091 -0.108688 0.348718 -0.080446 0.077718 -0.189253 0.245556 0.035632 -0.251746 0.067485 -0.017829 -0.223034 -0.182825 -0.244471 0.120418 0.232272 0.275893 0.186907 0.292404 -0.254690 -0.054500 0.020279 -0.072113 -0.163257 -0.307605 -0.122912 0.319970 0.141805 -0.337317 -0.097089 0.098939 0.225880 -0.266648 0.156669 -0.420594 -0.084090 0.156308 -0.213633 0.126003 0.004786 -0.054085 0.231546 0.127982 0.270062 0.127363 -0.209625 -0.115745 0.432747 0.040566 -0.022902 
mm180 -0.047334 0.093323 0.000814 0.028329 -0.043724 -0.236329 0.321951 -0.027418 -0.269605 0.183328 0.106414 -0.121071 -0.143055 -0.239636 0.373502 0.100509 0.102895 0.282718 0.293774 0.031701 -0.236493 -0.004543 -0.075699 0.038027 -0.505311 -0.024996 0.216818 -0.134832 -0.111732 0.215588 -0.059050 0.262393 -0.287227 -0.059306 -0.354568 -0.186566 -0.078340 -0.340406 0.176856 0.028508 -0.026593 -0.009495 0.185765 0.375041 0.259747 -0.189879 -0.067953 0.146405 0.126361 -0.043159 
mm785 -0.027357 -0.097663 -0.064762 -0.050953 0.081738 -0.141576 0.430881 0.067234 -0.321950 -0.050130 -0.080980 -0.168774 -0.164202 -0.220631 0.314594 0.178120 0.191241 0.268521 0.085603 0.022845 -0.145687 0.010608 -0.175795 0.025404 -0.330239 -0.091410 0.440403 -0.069703 -0.140232 -0.012140 0.196583 0.041136 -0.074413 0.005649 -0.496294 0.038140 0.104187 -0.362555 0.029661 0.121139 -0.063462 0.009101 0.134666 0.242915 0.449807 -0.095134 -0.185800 0.178347 0.290471 0.066465 
mm80 -0.018511 -0.076180 0.248731 -0.065380 -0.025320 -0.093021 0.178423 0.073673 -0.205533 -0.221149 0.104033 -0.029152 -0.269906 -0.292232 0.125947 0.156815 0.170836 0.172702 0.377302 -0.155660 -0.110957 0.168647 -0.153190 0.072865 -0.118049 -0.190981 0.204053 0.180415 -0.628062 -0.108082 0.107879 0.075286 -0.193570 -0.247589 -0.441976 0.055766 0.089491 -0.251938 0.250610 -0.094423 -0.068081 0.165788 0.270870 0.289240 0.383925 -0.207424 -0.160282 0.029643 0.163065 0.097328 
mm887 0.023153 0.169627 0.238605 0.070047 -0.022985 -0.194442 0.305413 -0.183679 -0.253980 0.007302 0.128689 -0.028486 -0.240122 -0.224976 0.263991 0.133625 0.229149 0.333898 0.148095 0.022857 -0.187306 0.063715 -0.033383 0.121582 -0.312900 -0.206691 0.372046 0.045915 -0.387302 0.053451 -0.035659 0.289283 -0.187639 -0.081274 -0.246660 0.002404 -0.113609 -0.369745 0.126255 0.098570 0.108333 0.084799 -0.098056 0.206195 0.419458 -0.126460 -0.000143 0.151468 0.044950 -0.062265 
mm7 0.223087 -0.195799 -0.090253 0.027604 -0.060949 -0.193874 0.467999 -0.050753 -0.341674 0.033634 0.011289 -0.215012 0.005353 -0.068481 0.205284 0.235652 0.145972 -0.006015 0.018759 -0.129415 0.003758 0.039222 -0.194851 0.113973 -0.324677 -0.212603 0.155973 0.007663 -0.330185 0.160332 0.129355 0.091501 0.039735 -0.082135 -0.306715 -0.229348 -0.148569 -0.417158 -0.051882 0.179552 0.001763 0.082963 0.067994 0.234587 0.577104 -0.350820 -0.045344 0.252120 0.371291 0.114041 
mm442 0.152276 -0.019534 0.129509 -0.046632 0.061078 -0.020931 0.236516 -0.128984 -0.304584 -0.001620 0.156129 -0.078175 -0.468219 -0.342492 0.157927 0.250633 -0.010566 0.191311 0.066490 0.264525 -0.183735 0.199229 0.062716 -0.145924 -0.462322 -0.247371 0.211692 -0.044641 -0.500970 0.131241 0.216742 0.131020 -0.380336 0.053073 -0.377215 0.015114 0.037783 -0.434139 0.016096 0.002426 0.138658 -0.008837 0.150637 0.110370 0.288316 -0.125342 -0.140783 0.368744 -0.029280 -0.213796 
mm800 -0.110013 0.034958 0.303013 -0.025793 0.012996 -0.199351 0.294083 -0.014263 -0.164191 0.063665 -0.072735 -0.289500 -0.111302 -0.393779 0.137964 0.173532 -0.051746 0.325164 0.217140 0.074897 -0.234614 0.079516 -0.135808 0.105880 -0.396644 -0.020758 0.364979 0.017971 -0.396747 0.251916 -0.094448 0.269891 -0.114501 0.140231 -0.455962 -0.202763 -0.040899 -0.231986 -0.067853 -0.041953 -0.162831 0.014078 0.121188 0.079532 0.379793 -0.101458 -0.130010 0.315812 0.021465 -0.050658 
mm401 0.098234 -0.262243 0.097267 -0.101224 -0.062069 -0.328520 0.189117 0.097852 -0.287441 -0.011494 0.118995 -0.247651 -0.429821 -0.164024 0.202788 0.122378 0.074207 0.370292 0.119741 -0.067428 -0.296979 0.092045 -0.013564 -0.087730 -0.384335 0.137017 0.356187 -0.099997 -0.239027 0.319414 0.036058 0.258055 -0.098351 -0.036062 -0.451743 -0.274425 0.115106 -0.139103 -0.223438 -0.058865 -0.018640 -0.044753 -0.063430 0.354223 0.344040 -0.200979 -0.263867 0.191102 0.339356 -0.100573 
mm61 0.037458 -0.021781 0.145072 -0.060745 -0.048998 -0.120314 0.420770 -0.035738 -0.168562 0.003860 0.043524 -0.149593 -0.193459 -0.221139 0.193668 0.192863 0.067205 0.221562 0.193521 0.009460 -0.235447 0.039051 -0.172755 0.006659 -0.411723 -0.090563 0.307476 -0.033324 -0.305626 0.106464 0.090455 0.187550 -0.151819 -0.049151 -0.374312 -0.069512 -0.029919 -0.345403 -0.011872 0.010830 0.017591 -0.000488 0.078583 0.208098 0.334486 -0.127774 -0.145367 0.304810 0.106276 -0.055875 
mm886 0.037226 -0.065812 0.143882 -0.067323 0.068383 -0.298621 0.437643 -0.019382 -0.209683 -0.023141 0.045723 -0.122603 -0.184383 -0.127276 0.019783 0.091745 0.077395 0.214318 0.258456 -0.041996 -0.323835 0.118751 -0.086364 0.037060 -0.478675 -0.163392 0.372412 -0.149379 -0.198034 0.080306 0.060957 0.247630 -0.172553 -0.081928 -0.448900 -0.310509 0.036595 -0.410259 -0.107073 0.017915 -0.164871 0.014196 0.039336 0.253804 0.275368 -0.250831 -0.100235 0.104797 0.097370 0.002075 
mm355 -0.067191 0.086725 0.106311 0.049033 -0.033883 -0.168557 0.145981 -0.234432 -0.185455 -0.155667 -0.284025 -0.144848 -0.192967 -0.357992 0.198489 0.149293 0.010526 0.046585 0.094510 0.039782 -0.175226 -0.093592 0.006501 0.292099 -0.536209 -0.063438 0.168907 0.134606 -0.119223 -0.103425 -0.127273 0.298632 -0.174899 -0.107247 -0.515924 -0.363749 -0.147758 -0.131975 0.141734 -0.023360 0.017617 0.181911 0.283560 0.204907 0.451076 0.011339 -0.152989 0.028033 0.048590 0.003386 
mm193 -0.194596 0.185913 0.074763 0.049477 -0.102485 -0.102325 0.324969 0.028992 -0.064200 0.070306 0.011073 -0.207654 -0.109145 -0.170603 0.254356 0.227002 0.135342 0.150248 0.350670 0.149999 -0.264552 0.129664 -0.183266 -0.018520 -0.277941 -0.080566 0.261129 -0.063359 -0.272444 0.138734 0.056885 0.072271 -0.137938 -0.006961 -0.584280 -0.012799 -0.058958 -0.386210 0.115903 0.065419 -0.043653 0.063118 0.094905 0.075422 0.420298 -0.081377 -0.068598 0.080002 0.397240 -0.146755 
mm760 -0.008009 0.025971 0.334306 -0.067809 0.057959 -0.064762 0.499833 0.036595 -0.161425 -0.060721 0.231153 -0.164391 -0.193073 -0.195902 0.346879 0.269677 0.160502 0.107628 0.214255 -0.070017 -0.147172 -0.013714 -0.095454 0.150148 -0.447701 -0.001394 0.397588 0.048904 -0.336704 0.006864 0.017567 0.064084 -0.087021 0.027635 -0.268240 -0.122180 0.003894 -0.287362 -0.043901 0.006703 -0.039098 0.054659 0.000905 0.340060 0.230839 -0.102751 -0.172379 0.165587 0.206408 -0.047050 
mm410 0.279359 0.108539 0.182248 0.155808 -0.093653 -0.154750 0.455832 0.148423 -0.208959 0.084452 -0.037554 -0.129928 -0.245881 -0.247444 0.114599 0.114364 0.040851 0.342462 0.132310 -0.147195 -0.254699 0.046351 -0.060307 -0.056905 -0.534893 -0.106606 0.269370 -0.188890 -0.488051 0.120749 -0.092969 0.058965 0.107143 -0.185190 -0.315567 -0.125813 -0.002570 -0.308875 -0.086045 -0.016673 0.231050 0.195686 0.079280 0.170271 0.392280 -0.356889 -0.070965 0.405322 -0.034908 -0.145533 
mm81 0.019025 -0.029750 0.259769 -0.057432 -0.045154 -0.175963 0.409953 -0.027408 -0.257720 0.031988 -0.002549 -0.172981 -0.152622 -0.292471 0.259319 0.231763 0.142620 0.250457 0.232173 -0.014756 -0.258173 -0.019177 -0.147141 0.050292 -0.394950 -0.091067 0.289080 -0.026237 -0.185270 0.084186 0.063115 0.152041 -0.182276 -0.023045 -0.364656 -0.095345 -0.069713 -0.197754 -0.057960 0.053373 -0.043019 0.023565 0.030429 0.208118 0.307689 -0.190789 -0.180371 0.233024 0.153619 -0.037513 
mm74 0.055645 -0.004859 0.002349 0.069805 -0.117551 -0.185262 0.345405 -0.024001 -0.207382 -0.114242 0.134984 -0.137298 -0.165126 -0.210628 0.322795 0.111458 0.210195 0.217578 0.112172 0.028237 -0.179568 0.116157 0.059712 0.218485 -0.564400 -0.210851 0.265765 -0.040132 -0.152803 -0.005998 0.023070 0.292299 -0.200424 0.035167 -0.381205 -0.066014 -0.033338 -0.360631 0.007083 0.057032 0.068558 -0.006855 0.167623 0.133197 0.380952 -0.214976 -0.073728 0.144963 0.105205 -0.066907 
dd12 0.285576 -0.464673 -0.194907 0.053079 0.154631 0.259885 -0.598287 -0.002831 0.047002 0.543062 0.058386 0.240085 0.521237 0.234203 -0.118367 -0.194927 -0.215102 -0.208636 -0.229429 0.234038 0.016442 -0.366576 0.331948 -0.260225 0.735337 0.314443 -0.209948 -0.307109 0.841913 -0.377672 0.117399 -0.145059 0.148417 0.040712 0.546453 0.176943 -0.064644 0.469109 -0.426580 -0.348959 0.126637 -0.533528 -0.128103 -0.106831 -1.063866 0.469861 0.234241 -0.570858 -0.537640 0.561071 
dd183 -0.195308 -0.007243 0.049409 0.067467 0.073764 0.249333 -0.654800 0.014947 0.511769 0.184202 -0.183503 0.677481 0.390647 0.204486 -0.770981 -0.379132 0.042614 -0.164105 -0.257257 -0.190427 0.313686 -0.230491 0.319294 -0.433695 1.014257 0.305503 -0.165589 0.066660 0.602970 -0.528038 -0.253223 -0.164720 -0.109834 0.285774 0.690879 0.363917 0.698914 0.438146 -0.064458 0.225191 0.004753 0.040195 0.243069 -0.207581 -1.013947 0.115124 0.323235 -0.120997 -0.836891 0.182226 
dd468 0.213728 0.313989 -0.140942 0.084641 0.224047 0.173282 -0.442624 0.349072 0.252100 0.634731 -0.117872 0.306071 0.621846 0.731814 -0.204086 -0.242074 -0.142659 -0.486927 -0.687869 0.259708 0.144429 -0.035154 0.295000 -0.245869 0.745503 0.528798 -0.447457 -0.161833 0.808266 -0.038374 0.259591 -0.166865 0.488368 -0.109009 0.916981 0.054844 -0.009340 0.411917 -0.395573 -0.053637 0.222615 -0.477475 -0.242769 -0.437051 -0.743390 0.451729 0.414690 -0.483028 -0.428553 0.371577 
dd198 0.065327 0.169195 -0.165520 0.456304 0.322747 0.008587 -1.075466 0.227956 0.348663 0.298170 -0.194934 0.500510 0.067170 0.573935 -0.384800 -0.375640 -0.234510 -0.617301 -0.635693 0.392203 0.102705 -0.048607 0.597924 -0.464919 0.607702 -0.130242 -0.361773 -0.456151 0.282811 -0.095787 0.235115 -0.062624 0.065315 0.393598 0.786897 -0.246206 0.029544 0.456024 -0.003220 -0.128142 -0.092680 -0.137787 -0.006564 -0.307128 -0.528915 0.732584 0.579986 -0.100574 -0.611104 -0.065459 
dd18 0.166253 0.016519 -0.151117 -0.080063 -0.172028 -0.002235 -0.686773 0.004813 0.421797 0.213311 -0.271923 0.458558 0.382304 0.455075 -0.560434 -0.260962 -0.114357 -0.319570 -0.362419 0.142432 0.101193 -0.418347 0.543812 0.109313 0.830498 0.226781 -0.630044 -0.192804 0.487009 -0.024537 0.070401 -0.565536 0.385362 -0.070248 1.177450 0.070665 0.662432 0.081168 -0.288399 0.100216 0.201682 -0.122017 -0.117287 -0.144064 -0.698062 0.723827 0.539759 -0.494174 -0.462892 0.084199 
dd253 0.417854 0.128601 -0.458362 -0.130148 -0.383180 0.739134 -0.238503 -0.293035 0.753601 0.242325 0.193317 0.491996 0.539726 0.373094 -0.300008 -0.557953 -0.096204 -0.413863 -0.409409 0.694082 -0.104302 -0.652338 0.271269 -0.187301 0.425691 -0.328207 -0.472074 0.001480 0.305632 0.109588 -0.154456 -0.408052 0.506233 0.122617 0.509912 -0.491844 -0.023345 0.324468 -0.084195 -0.218093 -0.180659 -0.020538 0.036274 -0.305141 -0.502348 0.498919 0.153989 -0.250844 -0.495971 0.793219 
mm100 0.073666 -0.101930 0.246047 -0.021199 -0.085160 -0.186034 0.258306 0.001476 -0.202427 0.051071 -0.070655 -0.104421 -0.174470 -0.249718 0.234362 0.198495 0.063148 0.251328 0.152503 0.020722 -0.072959 0.055947 -0.123737 0.097095 -0.430567 -0.135466 0.372646 -0.104167 -0.250558 0.134037 -0.018491 0.131264 -0.209014 -0.062949 -0.462917 -0.079569 -0.108924 -0.317963 -0.025934 -0.081122 -0.004772 0.005436 0.131346 0.220972 0.287709 -0.179687 -0.126951 0.263250 0.152693 -0.044868 
mm707 -0.083397 0.150084 0.098650 -0.136108 -0.084141 -0.162153 0.406348 -0.063358 -0.132776 -0.116367 0.012152 -0.251439 -0.237333 -0.215292 0.306052 0.264139 0.158128 0.275109 0.153208 -0.028206 -0.219585 0.044054 -0.212168 -0.003278 -0.193222 -0.113855 0.431600 -0.023305 -0.242589 0.199254 0.011772 0.249266 -0.163018 -0.190356 -0.324273 -0.091811 -0.072349 -0.328533 -0.074602 -0.040210 -0.075396 0.033166 0.089790 0.170557 0.352128 -0.087613 -0.131449 0.253028 0.117978 -0.025536 
mm56 0.013121 -0.012917 -0.016088 -0.100773 -0.230400 -0.252474 0.470962 -0.034498 0.090272 -0.054338 0.221450 -0.121336 -0.277591 -0.269663 0.404196 0.319485 -0.001571 0.231362 0.139765 -0.044217 -0.193254 0.218645 -0.242891 -0.000868 -0.381366 -0.160586 -0.038320 -0.059574 -0.345871 0.175596 0.085333 0.235924 -0.338505 -0.050293 -0.344513 -0.059264 0.025286 -0.409676 0.028903 0.138362 0.050964 -0.182968 0.325345 0.197009 0.152397 -0.142255 -0.056223 0.352284 0.115616 -0.173392 
mm357 0.205318 -0.116581 0.218811 0.044254 0.135433 -0.061013 0.281285 -0.087686 -0.384793 0.100492 0.140945 -0.251390 -0.162606 -0.264775 0.370190 0.211205 0.143917 0.160569 0.241109 -0.030061 -0.181163 -0.027427 -0.029192 0.110463 -0.431068 -0.191203 0.265173 -0.101907 -0.105406 0.110777 0.041344 0.115537 -0.074283 -0.075846 -0.456906 0.061833 -0.237886 -0.319443 -0.146165 -0.077980 0.004574 0.012322 0.055909 0.196595 0.177126 -0.192386 -0.181930 0.132358 0.171237 0.095830 
mm897 0.064184 0.114498 0.220533 -0.008787 -0.043716 0.020221 0.355438 0.249373 -0.187621 -0.235867 -0.203228 -0.230459 -0.114207 -0.427458 0.394078 0.246256 0.086799 0.261594 0.151966 -0.149965 0.038153 0.086388 0.025740 0.081542 -0.430863 -0.142221 0.193396 0.096280 -0.453829 0.161803 0.102899 0.033732 -0.177966 -0.107926 -0.227779 0.072381 0.043152 -0.236246 0.031867 0.062281 0.009743 0.167391 0.182503 0.252955 0.290501 -0.132458 -0.065716 0.193476 0.183994 0.004735 
mm684 -0.012609 -0.014375 0.172250 -0.012423 -0.016270 -0.136068 0.337062 0.024325 -0.219149 -0.062323 0.005963 -0.239866 -0.235532 -0.222428 0.234731 0.203607 0.108949 0.156645 0.190002 -0.011454 -0.188729 0.046897 -0.168763 0.091438 -0.401964 -0.092048 0.235057 0.006499 -0.324821 0.152587 0.115863 0.144905 -0.061642 -0.077551 -0.359240 -0.042358 -0.049733 -0.251272 0.062134 -0.001452 0.008979 0.110540 0.030272 0.215803 0.301075 -0.160159 -0.092698 0.178308 0.147446 -0.071373 
mm791 0.196023 -0.034148 0.151484 0.016551 -0.062232 -0.326205 0.404576 0.021212 -0.089332 0.135739 0.128653 -0.108363 -0.416241 -0.091630 0.133072 0.117775 0.137500 0.085077 0.118958 -0.018126 -0.112009 0.206360 0.011942 0.099082 -0.544699 -0.004798 0.324868 0.110748 -0.350209 0.255293 0.112152 0.072857 -0.048040 0.148695 -0.412129 -0.179725 -0.213285 -0.420066 -0.047428 0.077030 0.084178 -0.005363 0.148523 0.061600 0.306088 -0.198395 -0.145004 0.242649 0.176842 -0.000618 
mm421 0.323293 -0.176146 0.266773 -0.140487 -0.123809 -0.286132 0.317974 0.108566 0.036813 -0.238442 -0.014875 -0.070281 -0.106961 -0.421468 0.213025 0.489336 -0.051909 0.489620 -0.015461 -0.013502 -0.342296 -0.154421 -0.381275 -0.205646 -0.540629 -0.050253 0.303336 -0.159650 -0.364663 0.158808 -0.139630 0.221950 -0.010509 0.165752 -0.493606 -0.105852 0.007757 -0.350605 -0.107277 -0.069291 -0.136193 0.070194 -0.251470 0.030467 0.337087 -0.142098 -0.155101 0.264673 0.240780 -0.012600 
mm609 0.030210 -0.088355 0.125731 -0.029476 0.013388 -0.237224 0.341362 0.016984 -0.233297 0.051247 -0.001900 -0.180265 -0.079540 -0.235843 0.201046 0.234347 0.157422 0.154482 0.230022 -0.029542 -0.314362 0.086046 -0.127822 0.135443 -0.357576 -0.014488 0.150772 -0.081720 -0.249797 0.018489 0.036444 0.128667 -0.291365 -0.093222 -0.385165 -0.128247 -0.133597 -0.432530 -0.040396 0.009371 -0.035018 0.092079 0.015189 0.227991 0.282527 -0.188904 0.014747 0.243342 0.239683 -0.103534 
mm387 0.093378 0.108180 0.045287 -0.019765 0.075000 -0.116544 0.533834 -0.098844 -0.047877 -0.346982 0.083735 -0.148218 -0.225327 -0.172661 0.219716 0.388677 0.197413 0.400873 0.400818 -0.090736 -0.386909 0.096288 -0.108125 0.028633 -0.387198 -0.032179 0.192880 0.007865 -0.144075 0.134477 -0.165669 0.265968 0.056262 -0.099896 -0.345007 -0.090703 0.375901 -0.329748 0.108310 -0.089576 0.047277 -0.058238 0.078204 0.129099 0.395121 -0.034456 -0.284682 0.370983 0.006708 -0.044112 
mm150 0.072117 0.112724 0.300078 0.065578 -0.309876 -0.281554 0.334210 0.008347 -0.016373 -0.219368 0.187832 -0.017003 -0.294583 -0.225818 0.071820 0.068722 0.020975 0.007282 0.222505 0.048360 -0.380088 0.191337 -0.060187 0.000574 -0.352471 -0.146873 0.461091 -0.121700 -0.560910 0.203322 0.021780 0.042437 -0.049058 0.096417 -0.468833 -0.212252 0.051625 -0.433136 0.084342 0.021987 0.062190 -0.119628 0.110312 0.145753 0.404457 -0.067949 -0.241945 0.179322 0.301186 -0.089938 
mm152 0.050565 -0.021757 0.182288 -0.052060 0.082955 -0.289694 0.290236 0.105432 -0.320252 -0.105008 0.002665 -0.112487 -0.232303 -0.231973 0.202513 0.209627 0.101390 0.174740 0.316037 -0.023565 -0.338571 0.054661 -0.049514 0.075163 -0.373789 -0.060553 0.239095 -0.003832 -0.244993 0.214939 0.049916 0.176334 -0.006427 -0.066728 -0.431366 -0.168721 0.059182 -0.381703 0.157040 -0.170827 0.134312 0.060621 0.146786 0.086962 0.164334 -0.241466 -0.157293 0.128712 0.117708 -0.109369 
mm428 -0.185075 -0.077243 0.045276 -0.079567 -0.177360 -0.315310 0.388664 -0.033898 -0.249771 -0.245486 -0.115478 -0.130256 0.180753 -0.209118 -0.085624 0.071425 -0.093544 0.211308 0.301857 0.044315 -0.104169 0.045705 -0.101569 -0.038905 -0.482642 -0.361946 0.301885 -0.061424 -0.392708 0.159959 0.156959 0.185889 -0.039297 -0.109796 -0.485703 -0.033769 0.110275 -0.418086 0.195349 0.074259 0.064687 0.051449 -0.004962 0.107482 0.384092 -0.204951 -0.278698 0.466882 0.103369 0.081898 
mm919 0.036965 -0.012880 0.191505 0.003929 0.093211 -0.198741 0.250234 -0.125557 -0.198616 -0.081244 0.032897 -0.113392 -0.250509 -0.153860 0.227622 0.213943 0.061888 0.202521 0.226511 -0.146606 -0.183838 0.121930 -0.106677 0.086491 -0.339368 -0.128025 0.273403 -0.003115 -0.299215 0.044995 -0.019887 0.146029 -0.081541 -0.127673 -0.377851 -0.102316 -0.039331 -0.246406 0.009660 0.004176 -0.022512 0.077005 0.136673 0.176837 0.346375 -0.245937 -0.136128 0.206023 0.124372 0.043295 
mm360 0.027809 -0.014467 0.261058 -0.000522 0.044256 -0.053053 0.321984 -0.025774 -0.182853 -0.025474 0.243395 -0.124171 -0.235666 -0.145604 0.212458 0.199850 0.225920 0.056008 0.228693 -0.076826 -0.204358 0.102562 -0.242679 0.024323 -0.375429 -0.127820 0.142242 -0.016114 -0.241454 0.190520 0.063695 0.029123 -0.023657 -0.098230 -0.401136 0.037349 -0.020953 -0.283023 0.047717 0.026671 0.011925 0.106283 -0.092046 0.236891 0.317191 -0.227103 -0.042384 0.291621 0.230019 -0.097929 
mm464 0.111530 0.078244 0.086520 0.006759 -0.154341 0.111052 0.308823 0.128361 -0.205931 -0.005080 0.031957 -0.302313 -0.318146 -0.053546 0.207122 0.226508 0.345927 0.029669 0.237566 0.174564 0.064301 0.058693 -0.120930 -0.087256 -0.429502 0.004375 0.378437 0.157556 -0.215416 0.120868 0.022842 -0.031265 -0.132930 -0.145364 -0.535449 -0.027551 -0.182801 -0.305938 0.157534 -0.028991 -0.274821 0.037951 -0.031305 0.267372 0.366341 -0.014632 0.089424 0.119356 0.374582 -0.192192 
mm457 0.161434 -0.064758 0.271203 -0.032650 0.153098 -0.137704 0.314789 0.166994 -0.022419 -0.128840 -0.071438 -0.155587 -0.267777 -0.228914 0.102467 0.194334 0.119007 0.120162 -0.005539 -0.097220 -0.228287 0.117454 -0.184904 0.237281 -0.356353 -0.239241 0.356751 0.063293 -0.280114 0.112114 0.082149 0.122938 -0.303916 -0.021926 -0.505550 -0.104313 -0.034006 -0.289925 0.320304 -0.030648 0.041195 0.039346 0.174646 0.362034 0.188134 -0.104974 -0.229118 0.239914 0.085217 -0.078001 
mm18 0.168393 -0.056484 0.279620 -0.061434 0.097365 -0.166653 0.363058 0.134339 -0.036104 -0.124471 -0.062130 -0.140998 -0.264666 -0.195096 0.101026 0.183651 0.064513 0.134971 0.021586 -0.078960 -0.253335 0.084429 -0.183132 0.234498 -0.362706 -0.258989 0.372030 0.088466 -0.226862 0.099944 0.076758 0.120494 -0.225538 0.024750 -0.483814 -0.113059 -0.000363 -0.230374 0.277107 -0.071464 0.031381 0.049571 0.204496 0.381505 0.177217 -0.120515 -0.275902 0.206545 0.058130 -0.055979 
mm674 0.019393 0.005732 0.114123 -0.088669 -0.075003 -0.160068 0.327102 -0.044005 -0.189116 -0.047436 0.077982 -0.036790 -0.122809 -0.083414 0.200984 0.153464 0.042602 0.234622 0.225469 0.021793 -0.248398 0.023778 -0.221345 0.045931 -0.449073 -0.122466 0.350457 -0.036642 -0.277151 0.062082 0.096172 0.281651 -0.117579 -0.068922 -0.352837 -0.126451 -0.015334 -0.355804 0.060079 0.013315 0.033775 0.094335 0.124383 0.252228 0.408695 -0.169336 -0.196430 0.210331 0.175669 -0.059853 
mm51 0.035100 0.019292 0.165381 -0.040681 -0.066478 -0.138376 0.289710 -0.035990 -0.142201 -0.033819 0.007430 -0.185666 -0.159476 -0.240100 0.188336 0.160551 0.126444 0.197003 0.237460 0.044505 -0.267876 0.029292 -0.241896 0.014093 -0.375176 -0.118744 0.362929 -0.017871 -0.272287 0.093570 0.032723 0.145671 -0.171824 -0.041832 -0.366934 -0.131780 -0.012117 -0.388238 0.031190 -0.026975 -0.056941 -0.031520 0.069491 0.217748 0.384901 -0.166977 -0.172271 0.284225 0.137964 -0.019505 
mm1072 -0.098597 -0.117174 0.157407 -0.294088 0.201161 -0.227660 0.260487 -0.192187 -0.131449 -0.093186 -0.053565 0.004798 -0.171353 -0.176094 0.434685 0.159504 0.229081 0.130509 0.089524 -0.237278 -0.137486 -0.032068 -0.098727 -0.075128 -0.073817 -0.237399 0.268180 0.022223 -0.144354 0.281805 0.275101 -0.065574 -0.107215 0.093912 -0.413292 0.029288 -0.149852 -0.428130 0.048393 -0.205648 0.035066 0.111916 0.250240 0.342861 0.278965 -0.101243 -0.206771 0.069140 0.266147 -0.243173 
mm111 0.107603 0.075175 0.072868 -0.235664 -0.273238 -0.082855 0.300549 -0.021519 -0.172813 0.114978 0.152149 -0.042139 -0.306625 -0.176714 0.288903 0.323465 0.165139 0.173497 0.216269 -0.044848 -0.203384 0.038530 -0.109388 0.038203 -0.512290 -0.191440 0.144188 -0.129668 -0.062185 0.048399 0.045777 0.027699 -0.304763 0.102830 -0.419940 -0.068078 -0.062616 -0.314577 -0.027121 -0.041766 0.074696 0.040221 0.131614 0.184158 0.393839 -0.133539 -0.197944 0.240731 0.211094 -0.073774 
mm362 0.035711 -0.117763 0.031666 0.020391 0.024801 -0.099405 0.326225 -0.145543 -0.174894 -0.138362 0.018088 -0.197804 -0.244535 -0.113535 0.241043 0.196628 0.171012 0.120911 0.112620 -0.213353 -0.173874 0.074631 -0.128971 0.104028 -0.336627 -0.046556 0.196132 -0.025644 -0.222292 0.096964 0.092594 0.155475 -0.037118 0.020841 -0.417468 -0.006210 -0.073661 -0.251351 0.106119 -0.013935 0.026767 0.138244 0.064068 0.226065 0.345161 -0.203284 -0.212877 0.190857 0.186961 -0.163097 
mm128 0.029735 -0.148698 0.266138 -0.135044 0.024279 -0.189264 0.247212 -0.027980 -0.188440 -0.005524 -0.075366 -0.302544 -0.135747 0.034443 0.034342 0.196647 0.128588 0.176048 0.280083 0.010815 -0.427997 0.171380 -0.216987 0.218433 -0.397110 -0.143307 0.152205 0.121503 -0.230998 0.270393 -0.007354 0.196406 -0.162348 -0.101526 -0.454633 -0.049020 -0.067576 -0.239363 -0.000104 -0.191786 -0.081224 -0.003560 0.048406 0.220783 0.350282 -0.178492 -0.233264 0.224886 0.202276 -0.102182 
mm10 0.054640 -0.047020 -0.022937 -0.160551 -0.274983 -0.388424 0.390450 0.113070 -0.063738 -0.128187 0.016013 -0.068199 -0.085768 -0.237504 0.196336 0.326230 0.195624 0.254004 -0.018454 0.075655 -0.045055 0.075271 -0.293952 0.064783 -0.490740 -0.266238 0.323928 0.017200 -0.292587 -0.110048 0.166935 -0.100049 -0.052443 0.196938 -0.464725 -0.064387 0.121794 -0.271810 0.080171 -0.001147 -0.223952 0.097470 -0.211115 0.158446 0.512164 -0.410582 -0.181852 0.205216 0.014224 0.030458 
mm816 -0.023182 -0.137071 0.266368 -0.274617 0.121795 -0.006262 0.387379 0.009786 -0.165312 -0.013811 0.352398 -0.114010 -0.147540 -0.311598 0.325206 0.265112 0.063425 0.224968 0.208412 0.127770 -0.310919 -0.154987 -0.148172 0.031299 -0.421921 -0.246895 0.067698 0.092526 -0.354322 0.007130 0.105758 0.235418 -0.163242 0.101052 -0.433939 -0.331327 -0.033356 -0.342949 0.211842 0.044669 0.036274 -0.125988 0.110718 0.023857 0.390889 -0.007164 -0.100092 0.180969 0.045303 -0.113849 
mm117 -0.012837 0.072594 0.006893 0.230070 0.101008 -0.207985 0.312089 0.029497 -0.279840 -0.048682 0.100742 -0.249084 -0.273274 -0.182936 0.235348 0.033764 0.183805 0.172237 0.294671 0.040625 -0.191081 0.160276 0.063405 0.082669 -0.338471 -0.141867 0.368976 0.018124 -0.197528 0.038221 0.004736 0.098017 -0.214379 -0.090456 -0.443549 -0.104867 -0.003565 -0.337437 0.095341 -0.089241 -0.126765 0.151019 0.142915 0.184438 0.379909 -0.020094 -0.171876 0.206068 0.216554 0.074158 
mm612 -0.113507 -0.185799 0.051101 0.013703 0.086508 -0.165613 0.339812 0.024276 -0.258593 -0.095988 -0.011026 -0.189706 -0.165795 -0.121728 0.232722 0.356196 0.057712 0.039569 0.025492 -0.153269 -0.123314 0.122724 -0.307147 0.081633 -0.531335 -0.078744 0.393295 0.045676 -0.428202 -0.106231 0.056720 0.160541 -0.120001 -0.119948 -0.231361 -0.066973 -0.131021 -0.291501 0.285924 -0.014943 -0.029543 0.150003 0.015509 0.271849 0.241555 -0.061818 -0.057449 0.228949 0.113481 -0.080969 
mm867 -0.131417 -0.093237 -0.031384 -0.273996 -0.036265 -0.305524 0.317228 -0.050509 -0.194791 0.145702 0.128905 -0.160205 -0.106903 -0.195053 0.239322 0.199413 0.053273 0.267140 0.353348 -0.102784 -0.204875 0.216135 -0.228794 0.028030 -0.318141 0.022507 0.343847 -0.054912 -0.416313 -0.067834 0.283755 0.010971 -0.106546 -0.080550 -0.492207 -0.117766 0.010384 -0.233817 0.010872 0.030658 -0.179575 0.020107 -0.152787 0.199615 0.391115 -0.390986 -0.018530 0.167047 0.006919 -0.211407 
mm310 -0.017618 -0.054050 0.192231 -0.020708 -0.045034 -0.069807 0.280851 -0.128012 -0.217340 -0.038701 -0.009848 -0.213400 -0.162354 -0.235008 0.211860 0.146752 0.127717 0.117000 0.169163 -0.155645 -0.230279 0.112934 -0.089697 0.095404 -0.364778 -0.039990 0.383317 -0.016497 -0.281626 0.183691 0.105998 0.233490 -0.175418 -0.101754 -0.432609 -0.003365 -0.060341 -0.318506 0.027657 -0.054244 0.141241 0.019623 0.091634 0.174310 0.375640 -0.135357 -0.051404 0.171559 0.166013 -0.027520 
mm495 -0.201308 -0.009823 0.091297 -0.123802 0.134789 -0.309623 0.255824 -0.062260 0.009934 -0.031346 -0.036875 -0.118604 -0.179387 -0.182247 0.300772 0.023927 0.361633 0.151861 0.051774 -0.100961 -0.179058 0.046716 -0.043731 0.266420 -0.424589 -0.190230 0.255695 0.060716 -0.250561 0.140956 -0.043721 0.210347 -0.193659 -0.005743 -0.586893 -0.130893 -0.066444 -0.329268 0.276564 -0.141094 -0.071440 -0.041458 -0.020810 0.149337 0.222531 -0.088782 -0.263212 0.191783 0.135287 -0.036492 
mm893 0.046290 -0.023346 0.145502 0.008555 -0.016615 -0.086194 0.363527 -0.006827 -0.317779 -0.002255 0.043533 -0.144868 -0.296404 -0.178868 0.031542 0.208966 0.044958 0.232585 0.192557 0.032461 -0.273528 0.006445 -0.207435 -0.047664 -0.365226 -0.032769 0.250570 -0.138033 -0.342467 0.146107 -0.010968 0.129441 -0.126071 -0.020553 -0.435150 -0.010643 0.020375 -0.379232 0.036138 0.088871 -0.058978 0.092671 -0.081193 0.090445 0.344501 -0.314352 -0.188188 0.219775 0.061896 -0.058640 
mm364 -0.251442 0.070509 0.229553 -0.005459 -0.063020 -0.169529 0.182153 -0.154993 -0.203922 -0.035535 -0.061374 -0.112128 -0.211422 -0.308632 0.100297 0.243643 0.161399 0.147296 0.127324 0.026289 -0.222302 0.080231 -0.116759 0.263082 -0.475582 0.015080 0.314335 0.080061 -0.236012 0.107877 -0.026389 0.218272 0.004897 0.014705 -0.435437 -0.092163 -0.114222 -0.154009 0.014330 0.045720 0.046694 0.160053 -0.015088 0.037223 0.413859 -0.181437 -0.115893 0.055702 0.120728 -0.128498 
mm413 0.124116 0.014519 0.264551 -0.007569 -0.140286 -0.172924 0.358101 0.021439 -0.163457 0.057183 0.020840 -0.110235 -0.181410 -0.166023 0.109208 0.079674 0.048070 0.192287 0.112209 -0.092984 -0.201036 0.045318 -0.219337 0.122497 -0.460090 -0.129935 0.444533 0.072635 -0.302133 -0.004122 -0.053503 0.105472 -0.164490 -0.074782 -0.513497 -0.029451 0.083235 -0.259436 -0.028534 -0.001972 -0.009846 -0.106010 0.130993 0.316257 0.289963 -0.119933 -0.262655 0.338411 0.181683 -0.043167 
mm403 0.227545 -0.059056 0.165867 -0.019827 -0.081463 0.087794 0.221034 0.073580 -0.094979 -0.203490 -0.093630 -0.206231 -0.110594 -0.311922 0.339869 0.107335 0.147531 0.357861 0.096139 -0.257246 -0.385738 0.153075 -0.370613 -0.100554 -0.376535 -0.034779 0.349978 0.176478 -0.172543 0.136181 0.149084 -0.000339 -0.128021 -0.113275 -0.381018 0.081243 -0.044533 -0.286787 0.304377 -0.036792 -0.083894 0.072749 -0.207776 0.366156 0.352165 -0.249261 -0.101492 0.309079 -0.015941 -0.168016 
mm418 -0.043577 0.091194 0.218221 -0.139689 0.092025 0.015079 0.475951 -0.004569 -0.265229 -0.021127 0.008928 -0.028888 -0.401912 -0.239829 0.187871 0.481714 0.116590 -0.079648 0.122846 -0.288269 -0.393264 -0.037347 -0.082814 -0.261720 -0.182915 -0.133040 0.306302 0.100935 -0.282798 0.227552 0.098227 -0.107249 -0.163351 0.066364 -0.255743 -0.033783 0.039671 -0.333423 -0.024535 -0.050128 -0.056125 0.056259 -0.052457 0.212842 0.362225 -0.223166 -0.317789 0.308498 0.179101 -0.019807 
mm151 -0.014851 -0.042108 0.115852 -0.109483 -0.027524 -0.161139 0.278872 -0.118007 -0.328884 -0.064881 -0.048412 -0.076073 -0.181630 -0.322970 0.336566 0.391195 0.144346 0.168626 0.100534 0.218332 -0.049935 0.046724 0.043124 0.220166 -0.440396 -0.122894 0.345988 0.030248 -0.205545 0.182083 0.093301 0.211207 0.033342 -0.124324 -0.393811 0.054415 -0.186662 -0.244920 -0.068792 0.016284 0.012895 0.090556 0.192382 0.184406 0.409108 -0.104700 -0.035823 0.199544 0.185849 -0.118256 
mm584 -0.096631 0.129221 0.221627 0.117170 0.059610 -0.043329 0.249316 -0.064958 -0.177293 -0.022737 -0.081598 -0.125799 -0.097389 -0.250603 0.326874 0.209798 0.149440 0.268139 0.138887 0.082663 -0.222082 0.085340 -0.179856 0.010493 -0.270112 -0.037987 0.352457 0.055371 -0.169335 0.067115 0.081086 0.196003 -0.240120 0.018354 -0.395031 -0.060017 0.008290 -0.411067 0.136717 0.140807 0.128698 0.095527 -0.024387 0.144436 0.464832 -0.280783 -0.083934 0.277895 0.093885 -0.141925 
mm85 -0.046868 -0.000506 0.166874 0.023942 -0.002162 -0.212326 0.408416 0.001726 -0.186786 0.030185 -0.020439 -0.139746 -0.354641 -0.100672 0.250610 0.133978 0.254500 0.216513 0.307611 -0.119910 -0.186905 0.110501 -0.072260 0.125960 -0.274484 -0.191755 0.262633 0.126702 -0.307548 0.040352 -0.008549 0.186065 -0.226210 -0.067962 -0.404833 -0.062572 -0.138144 -0.223421 0.073440 0.086382 -0.028416 0.170914 0.136958 0.066983 0.342818 -0.018068 -0.172499 0.090471 0.062988 -0.038681 
mm409 -0.190658 -0.068075 0.169757 0.037841 0.099078 -0.106643 0.265264 -0.044288 0.021161 -0.062058 0.074152 -0.293029 -0.162249 -0.266578 0.281911 0.169121 0.039701 0.119708 0.103000 0.143700 -0.035848 0.158038 -0.106225 0.196157 -0.429361 -0.043339 0.273557 -0.047230 -0.346366 0.034521 -0.030552 0.159287 -0.003271 -0.124968 -0.449423 -0.076955 0.185785 -0.355676 -0.021963 0.081785 0.162239 0.169399 0.047796 0.309902 0.406761 -0.072643 -0.342236 0.451325 0.145995 -0.012627 
mm324 0.000540 0.034631 0.196103 -0.060219 0.062601 -0.195886 0.331297 -0.078967 -0.254504 -0.080127 0.055491 -0.207014 -0.168970 -0.210430 0.241119 0.262784 0.224399 0.114002 0.176446 0.025934 -0.327467 0.040148 -0.167484 -0.026031 -0.341625 -0.138554 0.208567 -0.015967 -0.201760 0.049744 -0.008159 0.170709 -0.105101 -0.115891 -0.324331 -0.084288 -0.055903 -0.270545 0.088168 -0.031642 0.020190 0.016149 -0.042033 0.324057 0.389321 -0.201128 -0.096336 0.123538 0.158140 -0.106766 
mm437 0.109868 -0.033677 0.096107 -0.077900 0.113376 -0.023931 0.338651 0.158984 -0.162019 0.006331 0.065392 -0.067597 -0.174349 -0.284705 0.200097 0.277642 0.043590 0.376307 0.323053 0.085007 -0.225250 0.150833 -0.078448 0.071639 -0.300951 -0.073382 0.263023 -0.072437 -0.117468 0.082961 -0.037158 0.096010 -0.369483 0.023212 -0.488116 -0.148736 -0.009629 -0.174379 -0.034581 0.066138 -0.087506 0.053385 -0.007351 0.034141 0.552631 -0.308100 -0.017690 0.138174 0.393600 -0.198765 
mm182 -0.073084 0.012120 0.146254 -0.065166 -0.015429 -0.081612 0.262566 -0.010352 -0.183808 -0.201047 0.107137 -0.085208 -0.290457 -0.192167 0.203532 0.185980 -0.002540 0.230459 0.245793 -0.010504 -0.333418 0.045055 -0.221553 0.009400 -0.366832 -0.006757 0.275065 0.103316 -0.247771 0.076901 -0.036907 0.198795 -0.140405 -0.067120 -0.393448 -0.042298 -0.153742 -0.318413 0.053768 0.088954 -0.084173 0.153717 -0.026896 0.174154 0.409398 -0.139795 -0.224029 0.362243 0.119804 -0.077796 
mm910 -0.033423 0.058253 -0.033211 0.271660 0.173335 -0.176600 0.319521 0.027725 -0.314723 -0.086967 0.082168 -0.267845 -0.291085 -0.200044 0.247646 0.006869 0.174236 0.181692 0.312363 -0.007563 -0.200716 0.128533 0.147732 0.118844 -0.287875 -0.194285 0.351176 0.006589 -0.182376 -0.025711 -0.011615 0.015214 -0.215589 -0.073602 -0.424989 -0.139130 -0.007680 -0.307275 0.122299 -0.087637 -0.156635 0.240906 0.223506 0.244773 0.348488 0.002482 -0.162330 0.218918 0.263279 0.107359 
mm735 0.020787 -0.064356 0.071631 -0.064608 0.084601 -0.250846 0.343008 -0.098309 -0.245901 -0.063420 -0.018315 -0.217934 -0.287230 -0.261203 0.378558 0.281271 0.132086 0.178784 0.156335 -0.153815 -0.054095 0.142919 -0.103239 0.038153 -0.465563 -0.150626 0.182709 0.043292 -0.190006 -0.014027 0.081538 0.092877 -0.153689 0.015049 -0.432517 0.106070 -0.095679 -0.137615 -0.006117 -0.150442 0.081513 -0.016686 -0.003103 0.123688 0.338603 -0.202168 0.010408 0.292404 0.119332 0.000898 
mm762 -0.022381 0.000654 0.241451 0.184440 0.116795 -0.281454 0.077744 -0.102348 -0.252751 -0.316356 -0.198745 -0.149550 -0.385758 -0.194715 0.193879 0.336448 -0.007889 0.046683 0.178757 -0.075939 -0.195602 -0.008567 -0.044919 0.128056 -0.415099 -0.152236 0.176045 0.037738 -0.172861 -0.135006 0.138324 0.297328 -0.044104 -0.001597 -0.431390 -0.184840 -0.063123 -0.283605 -0.008726 0.209820 0.149200 0.018542 0.104961 0.110465 0.334150 -0.102463 -0.147689 0.133797 0.142394 -0.132917 
mm107 0.016400 -0.072724 0.202597 -0.179935 -0.057583 -0.137409 0.262158 -0.039291 -0.085134 0.018574 -0.054124 -0.269834 -0.178285 -0.218882 0.182050 0.309611 0.189764 0.381440 0.154222 -0.029055 -0.245006 0.060321 -0.135247 0.100610 -0.387509 0.055622 0.298491 -0.065651 -0.276412 0.217622 0.007849 0.357760 -0.154082 -0.069229 -0.320195 0.003956 0.049037 -0.333969 -0.088359 -0.051803 0.069286 0.053758 0.140159 0.262867 0.361799 -0.193553 -0.136103 0.283382 0.080224 -0.100801 
mm312 0.067711 0.099347 0.063602 -0.034495 -0.059130 -0.157723 0.370553 -0.111211 -0.253889 -0.119988 -0.113122 -0.162522 -0.299365 -0.137028 0.364278 0.027613 0.286513 0.099204 0.218383 -0.073324 -0.248497 -0.107354 -0.085844 0.024042 -0.249823 -0.109879 0.115388 -0.169914 -0.410861 0.032721 0.137518 0.056740 -0.344192 -0.125884 -0.279953 0.122398 -0.076528 -0.196899 0.045634 0.074043 -0.140801 -0.024872 0.214727 0.317893 0.462967 -0.177619 -0.175627 0.226093 0.241996 -0.001406 
mm908 0.038946 -0.027021 0.099363 -0.097207 0.014692 -0.257052 0.280664 -0.004983 -0.128956 0.005615 0.028154 -0.140680 -0.263740 -0.148125 0.177297 0.122758 0.138363 0.317801 0.220230 -0.109735 -0.199478 0.088856 -0.063397 0.150294 -0.331738 -0.093395 0.295686 0.052293 -0.344478 0.118384 0.011583 0.077185 -0.036036 0.001775 -0.416164 -0.106672 -0.060626 -0.260898 0.104970 0.138814 -0.030132 0.008519 0.063129 0.260297 0.349877 -0.154714 -0.187343 0.191437 0.221943 -0.075381 
mm21 -0.008364 -0.033684 0.206599 0.011901 -0.006861 -0.126960 0.330830 0.032971 -0.186873 -0.019095 -0.048820 -0.152295 -0.165776 -0.250090 0.131164 0.197459 0.115825 0.158796 0.196817 -0.030539 -0.255140 0.123773 -0.175788 0.041606 -0.459607 -0.028815 0.319794 0.018328 -0.336990 0.163332 0.021132 0.192303 -0.111417 -0.090161 -0.377333 -0.110178 -0.144933 -0.282866 0.033437 0.026266 -0.008857 0.026981 0.080071 0.206544 0.363865 -0.089431 -0.126265 0.228620 0.106282 -0.025549 
mm115 -0.065768 -0.210951 0.062984 -0.090980 -0.139807 0.016756 0.428556 0.045688 -0.205838 -0.099913 0.176297 -0.185806 0.053409 -0.147514 0.250793 0.268881 0.274805 0.029664 0.002525 -0.415884 -0.289804 0.204617 -0.243322 -0.071061 -0.423013 -0.046970 0.164708 -0.052549 -0.159174 0.157126 -0.076944 -0.045081 -0.225509 -0.003187 -0.454320 -0.039200 -0.250435 -0.346836 0.022769 -0.010583 0.016699 0.039571 0.021900 0.213920 0.311653 -0.110342 -0.168569 0.074606 0.261236 -0.003507 
mm928 -0.036264 0.010644 0.120359 -0.059489 -0.006732 -0.160957 0.246573 -0.064198 -0.186125 -0.036231 0.027570 -0.153611 -0.207987 -0.235506 0.183623 0.216115 0.077029 0.148694 0.190308 -0.103854 -0.192514 0.101168 -0.165580 0.052531 -0.405958 -0.071117 0.279652 0.049351 -0.287518 0.081273 0.064716 0.152419 -0.113705 -0.078728 -0.404649 -0.029111 -0.047221 -0.330425 0.039689 -0.056510 -0.031375 0.063871 0.027079 0.188829 0.305603 -0.159692 -0.131934 0.200916 0.149721 -0.039280 
mm502 -0.021347 0.014588 0.012257 -0.102985 -0.035017 -0.213242 0.253012 0.073796 -0.178827 0.175691 0.070057 -0.303750 -0.143731 -0.223272 0.232699 0.269440 0.186247 0.251289 0.340567 -0.007824 -0.179269 0.046948 -0.193275 0.079829 -0.427698 -0.076200 0.248395 -0.060538 -0.006400 0.140767 0.052005 0.319916 -0.032640 -0.215755 -0.431572 -0.132127 0.017564 -0.257539 0.147456 -0.088052 -0.010927 0.162711 -0.084874 0.118072 0.368977 -0.140002 -0.110976 0.212471 0.337208 -0.101773 
mm570 0.005481 0.033157 0.071794 -0.085455 0.032768 0.021116 0.182637 0.007085 -0.213308 -0.051684 0.153931 -0.211146 -0.273466 -0.284401 0.220090 0.061806 0.187812 0.042881 0.182558 -0.052608 -0.113666 -0.070846 -0.233084 0.000881 -0.368352 -0.150460 0.099848 -0.118930 -0.373901 0.093845 0.159031 0.166425 -0.097420 -0.029978 -0.519856 -0.013431 -0.056754 -0.389091 -0.042665 0.029520 0.060254 0.088837 0.021235 0.303250 0.416835 -0.129286 0.002680 0.186985 0.218603 -0.027571 
mm13 0.042310 -0.065025 0.108610 -0.057777 0.005385 -0.174831 0.343589 -0.033945 -0.193362 -0.061801 0.038203 -0.111378 -0.204676 -0.183788 0.198553 0.253381 0.087571 0.242484 0.197413 -0.044432 -0.211698 0.094298 -0.155895 0.008233 -0.318628 -0.141039 0.297171 0.020914 -0.288765 0.102697 0.106230 0.142028 -0.148169 -0.029652 -0.387406 -0.065912 -0.030178 -0.302502 0.059382 -0.031007 0.040080 0.094192 0.062541 0.229385 0.295240 -0.124262 -0.143828 0.220380 0.152983 -0.059317 
mm339 -0.007324 0.131693 0.327572 0.003889 -0.070978 -0.286583 0.291071 0.032440 -0.254804 -0.248376 -0.032062 -0.338120 -0.216332 -0.041478 0.159157 0.170788 0.111273 0.146527 0.209310 -0.060178 -0.116977 -0.148271 -0.080407 0.100571 -0.549462 -0.095626 0.235321 -0.022635 -0.168362 -0.029592 0.048530 0.223926 -0.183619 -0.166344 -0.458487 -0.162115 -0.255895 -0.510001 -0.243698 0.130388 0.169211 0.156116 0.285614 -0.000149 0.275765 -0.031875 -0.118382 0.355908 -0.000480 -0.132323 
mm929 -0.008168 -0.010749 0.092601 -0.073180 -0.032593 -0.146232 0.345914 -0.034435 -0.261536 -0.040738 -0.024958 -0.122076 -0.229207 -0.205183 0.202407 0.162225 0.139628 0.231573 0.144532 -0.070370 -0.201733 0.160767 -0.093416 0.038668 -0.376892 -0.130345 0.247082 -0.004622 -0.213859 0.123385 0.026233 0.159554 -0.086281 -0.042619 -0.426127 -0.096622 -0.021182 -0.261342 0.038924 0.026815 -0.039191 0.036315 0.052141 0.130815 0.385204 -0.162231 -0.164029 0.250543 0.146555 -0.070113 
mm753 0.003682 -0.005374 0.159125 -0.081793 -0.098473 -0.220707 0.347993 -0.051697 -0.163924 -0.007209 -0.019312 -0.123647 -0.243051 -0.173947 0.208918 0.152225 0.136230 0.188706 0.186543 0.022625 -0.214144 0.072383 -0.129839 0.016592 -0.408430 -0.163513 0.333683 -0.050288 -0.204539 0.069076 0.050158 0.157051 -0.097153 0.009568 -0.403344 -0.116508 -0.033437 -0.407008 -0.046233 -0.022233 0.024432 -0.021684 0.125277 0.213406 0.361890 -0.142125 -0.194713 0.197054 0.129616 -0.026857 
mm926 0.002318 -0.035364 0.105126 -0.009903 0.017142 -0.138812 0.341468 -0.023795 -0.188066 -0.080504 0.003424 -0.155643 -0.189460 -0.205252 0.238664 0.219616 0.124778 0.193117 0.176594 -0.033178 -0.152534 0.144458 -0.114348 0.042371 -0.370045 -0.183478 0.253410 0.013654 -0.246614 0.070430 0.060934 0.124483 -0.121111 -0.008534 -0.361284 -0.045512 -0.018206 -0.294615 0.054581 -0.001531 -0.008843 0.073129 0.091574 0.205393 0.373253 -0.108932 -0.126560 0.225234 0.099491 -0.079506 
mm535 -0.050148 -0.067238 0.158640 -0.053952 -0.137831 -0.185991 0.392800 -0.095539 -0.224875 -0.007101 0.023214 -0.076259 -0.233477 -0.240396 0.232017 0.163582 0.213885 0.245051 0.114317 0.046961 -0.163067 0.177742 -0.076213 0.132631 -0.391735 -0.034909 0.392667 -0.043076 -0.297837 0.099054 0.107979 0.177376 -0.163599 -0.171370 -0.341203 -0.083217 0.041018 -0.344426 0.063744 -0.034779 0.077423 -0.058489 -0.029902 0.217121 0.323706 -0.122262 -0.307622 0.293469 0.102650 -0.026332 
mm121 0.004733 0.115642 0.176715 -0.176974 -0.135793 -0.088936 0.375761 0.053515 -0.113835 -0.132723 0.078969 -0.144243 -0.131597 -0.197879 0.285225 0.220807 0.207703 0.343147 0.200002 -0.083026 -0.161386 0.141943 -0.250291 -0.021912 -0.445765 0.053950 0.276014 0.052111 -0.226376 0.093574 -0.036452 0.180828 -0.172884 -0.035996 -0.338706 -0.089094 -0.053786 -0.134864 0.002717 -0.044295 -0.098859 0.073454 0.063856 0.212140 0.457612 -0.087994 0.036000 0.236250 0.166557 -0.190085 
mm241 0.022560 -0.039985 0.112275 -0.086396 0.036058 -0.159763 0.365375 -0.101308 -0.214010 -0.038264 0.079792 -0.201665 -0.167173 -0.150727 0.215927 0.234363 0.120484 0.182476 0.210548 -0.209426 -0.138890 0.147561 -0.165969 -0.040199 -0.305184 -0.145514 0.191284 -0.087869 -0.232397 0.068322 0.079260 0.090409 -0.130658 -0.082521 -0.379169 -0.075925 -0.089402 -0.328229 0.062790 -0.016966 0.028774 0.076133 0.049697 0.191551 0.324593 -0.111862 -0.133332 0.208233 0.104528 -0.069078 
mm242 0.064730 0.100393 0.051315 -0.005414 0.101792 -0.096734 0.515358 -0.105269 -0.036293 -0.341843 0.133735 -0.127602 -0.227780 -0.180891 0.244300 0.410944 0.198991 0.339531 0.357965 -0.095803 -0.329867 0.055306 -0.108180 0.082573 -0.429218 -0.050834 0.185717 0.035591 -0.173368 0.125568 -0.193854 0.203133 0.054082 -0.100308 -0.361994 -0.032079 0.385318 -0.314630 0.125480 -0.078648 0.033855 -0.074216 0.115695 0.138335 0.421268 -0.060160 -0.303111 0.342492 0.040220 -0.057569 
mm32 0.069459 0.011968 0.143777 0.031902 -0.096214 -0.186949 0.339997 0.011221 -0.183588 -0.036604 0.069732 -0.196584 -0.210999 -0.176831 0.223317 0.188434 0.103245 0.214649 0.185957 -0.015297 -0.221398 0.098732 -0.112823 0.027774 -0.377771 -0.085578 0.321843 -0.012595 -0.281260 0.102523 0.044391 0.206037 -0.072057 -0.053932 -0.398263 -0.116112 -0.022414 -0.365483 0.032093 0.037489 -0.026839 0.030801 0.096958 0.151939 0.324561 -0.099029 -0.220653 0.304241 0.142114 -0.058231 
mm519 -0.013176 -0.081337 0.196013 -0.065764 0.082545 -0.143893 0.194027 0.073935 -0.122980 0.083852 -0.055245 0.002247 0.053632 -0.205869 0.353493 0.288292 0.232017 0.178280 0.128142 0.267817 -0.233716 0.057068 -0.046295 0.004610 -0.351800 -0.231975 0.189554 -0.003326 -0.181348 0.046830 0.044076 0.231733 0.028522 -0.072894 -0.479040 -0.025133 -0.117203 -0.408832 -0.112148 -0.103224 -0.011894 0.203095 0.088040 0.256428 0.632792 -0.235389 -0.314561 0.263831 0.228012 -0.235718 
mm129 -0.085233 -0.072498 0.279325 0.000198 0.133418 -0.374108 -0.075681 -0.049376 -0.267352 0.096968 -0.194489 -0.228993 -0.240098 -0.221706 -0.032572 0.388924 -0.223933 -0.218718 0.103096 0.052490 -0.204072 0.084426 -0.175024 0.213349 -0.481588 -0.055372 0.294847 0.066765 -0.070097 -0.061044 -0.003510 0.312340 -0.142567 0.040375 -0.569882 -0.274599 0.052227 0.083328 0.184975 0.205092 0.008136 0.086352 0.176741 0.386900 0.286330 0.024667 0.028384 0.349944 0.325209 -0.286905 
mm17 0.053996 -0.001275 0.179493 -0.029391 -0.064837 -0.180078 0.304871 -0.013917 -0.260110 -0.004492 0.032321 -0.182618 -0.244645 -0.237171 0.130299 0.215115 0.104894 0.244503 0.194876 0.067555 -0.202313 -0.022425 -0.123995 0.015661 -0.401683 -0.070136 0.380254 -0.036981 -0.272687 0.069333 0.063532 0.238504 -0.144010 -0.114899 -0.417497 -0.107788 -0.047063 -0.361662 0.008518 0.015906 -0.017312 0.046389 0.047315 0.159713 0.362713 -0.146316 -0.187689 0.243030 0.113568 -0.069040 
mm876 -0.000912 0.027942 0.209540 -0.120499 0.025210 -0.106345 0.365861 0.044523 -0.236409 -0.095557 0.026735 -0.287326 -0.204101 -0.269786 0.234118 0.323912 0.056293 0.091649 0.093414 -0.006349 -0.011756 0.049397 -0.093491 0.083720 -0.298029 -0.023181 0.294198 0.054884 -0.297185 0.075985 0.076902 0.222760 -0.168685 -0.064660 -0.445288 -0.089700 -0.055398 -0.409548 -0.020949 -0.032149 0.007231 0.073075 0.116493 0.074555 0.280135 -0.145868 -0.186738 0.214582 0.193428 -0.016912 
mm86 -0.008324 -0.110376 0.222733 -0.019904 -0.148695 -0.006582 0.442702 -0.153160 -0.209593 0.034240 0.067268 -0.146204 -0.130408 -0.183470 0.260121 0.192019 0.144848 0.194278 0.129676 0.075593 -0.168488 0.195596 -0.180116 -0.119358 -0.348577 -0.388764 0.270088 0.008190 -0.189057 0.127110 0.029434 -0.074791 -0.185388 -0.143238 -0.332607 -0.056326 -0.148955 -0.256481 -0.040777 -0.023678 0.164890 -0.002987 -0.128815 0.261772 0.374879 -0.186781 -0.110355 0.251914 0.277289 -0.115711 
mm1133 -0.028762 -0.160700 0.149928 -0.040233 -0.060628 -0.170845 0.136542 -0.026226 -0.202233 0.003424 -0.288682 -0.171824 0.022383 -0.291159 0.296456 0.396454 0.200043 0.286712 0.113242 0.043728 0.115244 0.133147 0.051515 0.159286 -0.392879 -0.284186 0.236979 0.295250 -0.442530 0.315227 0.023512 0.069440 -0.107730 -0.295575 -0.333357 -0.082407 0.038000 -0.344127 0.082355 0.159262 -0.031826 0.069091 0.108948 0.322962 0.285816 -0.140190 -0.017580 0.264952 0.074049 0.015496 
mm260 0.185464 -0.172011 0.223857 0.068506 0.170253 -0.069604 0.250284 -0.069793 -0.378044 0.133914 0.114363 -0.233760 -0.159526 -0.273289 0.367285 0.227817 0.128571 0.229369 0.252655 -0.034360 -0.250694 -0.017517 -0.040771 0.040282 -0.447603 -0.207788 0.306286 -0.127930 -0.106151 0.060723 0.021357 0.157086 -0.112133 -0.055421 -0.491903 0.019482 -0.223560 -0.299677 -0.173330 -0.037545 0.031398 -0.016633 0.083006 0.187581 0.241180 -0.208141 -0.152036 0.147737 0.113390 0.078540 
mm557 0.084456 -0.052619 0.309046 0.027362 -0.151691 -0.226738 0.464904 -0.141206 -0.343847 -0.022228 -0.025287 -0.079891 -0.066819 -0.074362 0.159953 0.126184 0.127020 0.259895 0.124223 0.073161 -0.255506 0.183178 -0.191497 0.143906 -0.279575 -0.247658 0.304010 0.044482 -0.297061 0.256906 0.063602 0.156584 -0.211818 -0.102661 -0.335010 -0.255794 -0.107142 -0.427671 0.084713 0.133412 -0.055036 -0.036702 0.073358 0.335366 0.521054 -0.106884 -0.137635 0.157641 0.142375 -0.051401 
mm960 -0.220585 0.242306 0.250881 -0.007291 0.114518 -0.423274 0.258171 -0.025680 -0.070986 -0.081168 -0.107389 0.158354 -0.052246 -0.462530 0.346112 0.220959 0.005453 0.230818 0.058601 -0.598305 -0.108676 0.013262 -0.171136 -0.028738 -0.173623 -0.186435 0.499609 0.137596 -0.388838 0.195847 -0.003576 0.183381 -0.239842 0.001078 -0.384952 -0.068943 -0.334985 -0.409269 0.109956 -0.058316 -0.076569 0.167198 0.009960 0.043051 0.149838 -0.335880 -0.088518 0.152461 -0.016157 0.060168 
mm405 -0.057229 0.053362 0.134850 0.032738 -0.237633 -0.281584 0.391600 0.073718 -0.128913 -0.063431 0.216711 -0.183618 -0.212292 -0.365991 0.125192 0.068508 -0.028894 0.112366 0.308580 0.052369 0.078804 0.094381 -0.158105 -0.002970 -0.579450 -0.098413 0.389381 0.074202 -0.005694 0.095158 -0.025184 -0.095703 -0.101689 0.025613 -0.524880 -0.257557 0.022304 -0.446521 -0.080643 -0.069330 0.053183 0.215862 -0.090333 0.195651 0.310814 -0.079140 -0.017602 0.222584 0.187085 -0.170471 
mm333 0.113724 0.103010 0.125035 -0.152791 0.136306 0.060051 0.355546 -0.145675 -0.273079 -0.026848 -0.036300 -0.133978 -0.177486 -0.259480 0.243192 0.088691 0.122736 0.448227 0.233060 -0.142932 -0.014064 0.319171 -0.196031 -0.043482 -0.357621 -0.211444 0.177930 -0.139039 -0.462983 0.047381 0.057128 0.166179 -0.259829 -0.000539 -0.182682 -0.042612 -0.104855 -0.442953 0.040943 0.055352 -0.127808 -0.045120 0.019015 0.115854 0.315303 -0.170730 -0.072441 0.099376 0.025715 -0.130957 
mm769 0.097988 -0.026783 0.117551 0.005006 -0.041983 -0.145830 0.307359 -0.049881 -0.241704 0.000603 0.033630 -0.134658 -0.196900 -0.215210 0.238591 0.249329 0.046365 0.145826 0.234654 -0.063634 -0.134174 0.023713 -0.086324 0.093911 -0.382576 -0.115541 0.331652 -0.015634 -0.327361 0.133493 0.103977 0.051957 -0.160419 -0.054352 -0.403072 -0.030079 -0.102476 -0.286607 0.020173 -0.028208 0.006624 0.055236 0.091368 0.194926 0.304799 -0.149725 -0.176696 0.132076 0.207185 -0.004408 
mm613 0.225532 -0.052289 0.128207 -0.026571 -0.027818 -0.316488 0.442621 0.021734 -0.060085 0.158418 0.116603 -0.048687 -0.417795 -0.083948 0.143466 0.123920 0.113666 0.045357 0.079291 -0.124410 -0.083184 0.266169 0.035602 0.083658 -0.559224 0.020411 0.276449 0.150929 -0.415564 0.318889 0.128625 0.013305 -0.019064 0.141823 -0.402771 -0.173669 -0.270954 -0.381531 -0.034992 0.067633 0.122837 -0.025430 0.120667 0.062813 0.233024 -0.188866 -0.084054 0.226225 0.211986 0.020951 
mm101 0.001670 0.049743 0.188005 -0.163866 -0.219672 -0.067030 0.422827 0.036882 -0.112864 -0.137717 0.069305 -0.115365 -0.112347 -0.268139 0.265126 0.158620 0.183968 0.429261 0.204324 -0.011077 -0.197696 0.099326 -0.266330 -0.011092 -0.485344 0.086266 0.202057 0.054181 -0.251984 0.048310 -0.011504 0.133467 -0.151725 0.002364 -0.385341 -0.077061 -0.031846 -0.136741 0.074922 -0.092807 -0.058278 0.038037 0.112923 0.140954 0.513796 -0.080541 0.060384 0.228889 0.160208 -0.235731 
mm803 -0.078882 -0.011854 0.162515 0.114481 0.022999 -0.317346 0.556357 0.123064 -0.149867 -0.265362 -0.107629 -0.162652 -0.243845 -0.411138 0.168838 0.371826 0.067596 0.143497 0.119777 0.053133 -0.148953 0.277095 -0.065189 0.165145 -0.302525 -0.189801 0.228992 -0.053498 -0.247476 0.141452 0.058673 0.137382 -0.015514 0.019616 -0.390446 -0.187886 -0.174970 -0.256938 0.078414 -0.060523 -0.067651 -0.108258 0.075544 0.253498 0.539636 -0.108143 -0.261238 0.136711 -0.102210 0.177094 
mm543 -0.086186 0.152233 0.090939 -0.158182 0.089359 -0.148995 0.362586 0.124542 -0.171213 0.023641 0.051018 -0.058730 -0.351913 -0.157347 0.191109 0.334242 0.163326 0.301662 0.276286 -0.071222 -0.129310 0.094262 -0.024290 -0.027443 -0.410949 -0.103494 0.226200 0.028803 -0.199619 -0.045669 -0.085779 0.181889 -0.151022 -0.025084 -0.296429 -0.033150 -0.003033 -0.374343 0.026366 0.138478 -0.190017 0.171220 0.172142 0.190974 0.374315 -0.250318 -0.223418 0.229181 0.184253 0.006373 
mm604 0.059513 -0.057221 0.266694 -0.152055 0.047337 -0.109593 0.271104 -0.058775 -0.136734 -0.016055 -0.015339 -0.184123 -0.075229 -0.196983 0.217527 0.324368 0.111119 0.206298 0.171593 -0.129314 -0.190551 0.094739 -0.149253 0.025668 -0.408606 0.031564 0.372313 0.025385 -0.260999 0.038335 0.131040 0.127511 -0.164824 -0.086284 -0.483596 -0.050996 -0.126389 -0.219434 -0.063528 -0.067889 0.081315 -0.009845 0.023243 0.173603 0.297148 -0.210405 -0.219401 0.224998 0.267656 -0.035978 
mm706 0.025276 0.026001 0.270220 -0.050414 0.039056 -0.090350 0.486282 -0.012858 -0.163677 -0.062389 0.127380 -0.143486 -0.260465 -0.213063 0.344789 0.243321 0.158358 0.086369 0.208444 -0.115164 -0.158393 -0.043919 -0.092629 0.121284 -0.375455 -0.000494 0.325700 0.047993 -0.339803 0.005352 0.040718 0.099356 -0.150349 0.056417 -0.263690 -0.080647 0.030549 -0.257472 0.051958 0.014829 -0.019108 0.080724 0.037905 0.306081 0.252234 -0.159076 -0.164310 0.125447 0.230486 -0.039913 
mm394 0.040601 0.023130 0.314437 -0.067348 -0.216958 -0.236198 0.201678 0.117048 -0.126243 0.029377 -0.320772 -0.163944 -0.495290 -0.445041 0.414332 -0.200669 0.335965 0.464943 0.202611 -0.020620 -0.437961 -0.258899 0.074025 0.126957 -0.388202 -0.267397 0.124795 0.090106 -0.153325 -0.017756 0.005400 0.278667 -0.422205 -0.005411 -0.352584 0.080108 -0.125530 -0.326710 0.231220 0.175506 -0.141423 0.123644 -0.012293 0.251840 0.374817 -0.140617 -0.137194 -0.077792 0.210990 -0.077935 
dd173 0.082009 0.051632 -0.142762 -0.122645 0.272051 0.601207 -0.777373 0.140499 0.547932 0.061000 0.016966 0.446852 0.671219 -0.029279 -0.350001 -0.728587 0.035316 -0.389175 -0.171784 0.427093 0.170994 -0.174253 0.230262 -0.488555 0.816798 0.175075 -0.283389 -0.248858 0.443576 0.094734 -0.172451 -0.359790 -0.035617 0.282940 0.656672 0.195694 0.109700 0.478645 0.002112 0.134080 0.191859 -0.009891 -0.505951 -0.200911 -0.521153 0.069785 0.019715 -0.267947 -0.202058 0.243140 
dd127 0.114866 0.077940 -0.389349 -0.124800 -0.246501 0.710677 -0.301615 0.091202 0.209368 -0.032208 0.018205 0.050039 0.551285 0.297224 -0.397410 -0.341218 -0.315090 0.222186 -0.204431 0.238029 0.280200 -0.479243 0.655402 0.117743 0.855169 0.016104 -0.165307 -0.057804 0.255212 0.417608 -0.193352 -0.102954 0.264247 -0.189837 0.889857 -0.178293 0.629268 0.642968 -0.326062 -0.363272 -0.163782 -0.289125 -0.072575 -0.272675 -0.748405 0.221689 0.183241 -0.221703 -0.342385 0.156652 
mm24 0.000186 0.023154 0.048331 -0.001022 -0.012724 -0.169907 0.164247 0.032733 -0.271222 -0.031445 -0.058401 -0.043841 -0.316220 -0.087565 0.407965 0.299306 0.239827 0.032985 0.073498 0.002014 -0.172961 0.180781 -0.018633 -0.092132 -0.507700 -0.276102 0.265347 -0.147223 -0.282744 0.217693 0.094855 0.204104 -0.256296 0.009341 -0.327403 -0.210495 0.061347 -0.370625 0.038487 -0.060579 -0.095525 0.042561 0.150529 0.197830 0.390152 0.017464 -0.018027 0.279241 0.080241 -0.130151 
dd268 0.000293 -0.128117 -0.356412 -0.049122 0.048826 0.299626 -0.637737 -0.241485 0.208569 0.039923 0.007012 0.552729 0.427636 0.154734 -0.302293 0.054510 -0.298403 -0.285795 -0.446676 0.749565 0.342477 -0.331324 0.457344 0.358168 0.849734 0.441334 -0.115427 0.038848 0.686047 -0.092473 0.141055 0.046609 0.459703 -0.171008 0.788605 0.504109 -0.065911 0.810193 -0.363261 -0.002832 0.188940 -0.161602 0.152749 -0.423326 -0.495868 0.426320 0.483725 -0.271317 -0.322372 0.046045 
mm524 -0.118825 0.122062 0.206901 -0.047760 -0.062914 -0.261769 0.417694 -0.060287 -0.042562 -0.027247 0.111483 -0.196785 -0.215808 -0.331554 0.314797 0.220409 -0.007063 0.224868 0.198128 0.007679 -0.139314 0.107253 -0.270213 -0.034052 -0.290259 -0.078741 0.396318 0.055906 -0.378430 0.003579 -0.024634 0.273020 -0.187389 -0.156251 -0.257261 -0.168263 -0.117211 -0.312080 0.132322 0.004438 -0.082160 0.015422 -0.021687 0.241800 0.313050 -0.062212 -0.123542 0.079708 0.208159 -0.011708 
mm1083 -0.056793 0.054882 0.175101 0.037772 0.036135 -0.122542 0.477202 -0.144968 -0.217325 0.080863 -0.133345 -0.115908 -0.255970 -0.446917 0.229034 0.330681 -0.077961 0.127033 0.058236 0.074047 -0.065898 0.107518 0.015326 0.057774 -0.405832 -0.122504 0.194160 -0.034816 -0.331672 0.007606 -0.057624 0.178793 -0.127136 0.009738 -0.391366 -0.098439 0.216724 -0.105393 0.119592 -0.019689 -0.018541 0.165118 0.049500 0.023328 0.364727 -0.213165 -0.275920 0.158119 0.132778 -0.155319 
dd324 0.151756 -0.033898 -0.495432 0.428120 -0.492702 0.314029 -0.443930 0.326593 0.494975 0.122572 -0.082759 0.229362 0.410086 0.336716 -0.575796 -0.511147 -0.070674 -0.331292 -0.024954 0.326054 0.356905 -0.392228 0.282022 -0.320961 0.660082 -0.025997 -0.567013 -0.486882 0.293834 0.219456 -0.198388 -0.078331 0.528825 0.003102 0.686073 0.129657 0.389874 0.486997 -0.530922 0.015284 -0.415601 0.048899 -0.067546 -0.138398 -0.813685 0.374428 0.291104 -0.168966 -0.559954 0.534997 
dd40 0.236500 -0.035532 -0.076072 -0.125498 0.395034 0.192816 -0.691617 0.515174 0.661009 0.204543 -0.419505 0.327946 0.533277 0.222465 -0.555235 -0.234012 -0.046735 -0.286383 -0.568146 0.314256 0.215003 -0.091361 0.361529 0.018234 0.714685 -0.016919 -0.134793 0.023078 0.684564 -0.046868 0.130827 -0.138020 -0.072342 -0.101485 0.287571 -0.076212 0.214740 0.556102 0.314878 -0.108714 0.316411 -0.144029 0.107835 -0.095352 -0.731208 0.254574 0.343740 -0.440410 -0.573929 0.276164 
dd96 0.263242 0.183942 -0.068191 0.095142 -0.563332 0.289677 -0.679733 0.024391 0.685235 0.124156 0.231718 0.531050 0.188654 0.275310 -0.345058 -0.636957 -0.014777 -0.529754 -0.295340 0.470771 -0.032411 -0.183276 0.558989 -0.625711 0.770112 0.157008 -0.281394 -0.298558 0.156803 0.157704 -0.002540 -0.294571 0.400587 0.348321 0.599569 -0.046353 0.343130 0.262162 -0.201491 0.308693 0.074757 -0.386322 -0.034833 -0.626288 -0.599472 0.391067 0.288687 -0.506312 -0.360108 0.401522 
dd291 0.165954 0.284437 -0.048872 0.387264 -0.002655 0.113844 -0.545408 0.025697 0.269873 0.695886 -0.427245 0.134710 0.013667 0.210756 -0.198197 -0.788139 -0.400170 -0.162893 -0.327339 0.337164 0.198657 -0.512376 0.018947 0.003041 0.505044 0.348641 -0.174836 -0.437431 0.258207 -0.355737 0.257241 -0.304560 0.324805 -0.297083 0.757763 0.029531 -0.115735 0.140260 -0.395148 0.131859 -0.048660 -0.208286 -0.345208 -0.727079 -0.220185 0.424699 0.417951 -0.254233 -0.439167 0.401711 
dd11 0.303956 0.158637 -0.211146 0.099748 0.137510 0.376873 -0.887831 0.229835 0.157665 0.398133 0.278800 -0.053961 0.386539 0.172774 -0.342810 -0.474617 0.162635 -0.240192 -0.427677 0.075825 0.421344 0.007086 0.168914 -0.308277 0.806831 0.124563 -0.402570 0.309168 0.352267 -0.172419 0.246078 -0.279201 0.202906 0.338223 0.426652 0.054727 0.065043 0.482022 0.232486 -0.289417 0.171998 -0.091449 -0.190811 -0.487635 -0.781179 0.808516 0.348849 -0.513270 -0.613207 0.076821 
mm862 0.054232 -0.140080 0.168079 0.028359 -0.084534 -0.231146 0.182622 -0.109983 -0.409136 -0.215654 0.097493 -0.081248 -0.185521 -0.306377 0.213675 0.254998 0.066419 0.193582 0.056707 -0.036733 -0.172533 0.143636 -0.143701 0.047603 -0.411301 0.077625 0.159518 -0.058904 -0.243921 0.175382 0.111858 0.089385 -0.231111 -0.007357 -0.331995 -0.102278 0.143118 -0.309285 0.092103 -0.176707 0.182820 0.045057 0.216290 0.201383 0.469030 -0.268523 -0.302752 0.283676 0.062794 -0.031511 
dd119 -0.150889 -0.200780 0.018949 -0.405284 0.274907 0.436407 -0.275552 0.145933 0.460114 0.386406 0.266431 -0.038040 0.484960 0.224765 -0.415934 -0.149955 0.023007 0.184316 -0.164488 0.125662 0.071636 -0.061233 0.043841 -0.395891 0.678349 0.121513 -0.095821 0.175183 -0.094415 0.350290 -0.159032 -0.427312 0.444983 0.312941 0.805930 0.095330 0.070187 0.575844 -0.424236 -0.244440 -0.155879 -0.022466 -0.246707 -0.644279 -0.547954 0.311174 0.298372 -0.176751 -0.235976 -0.087502 
mm555 -0.087722 -0.012208 -0.014907 0.087808 -0.016243 -0.116041 0.324977 -0.081909 -0.355242 -0.040364 0.138150 -0.179283 -0.233963 -0.263601 0.273323 0.244564 0.157966 0.089255 0.206505 -0.272134 -0.071745 0.115552 -0.180107 -0.027097 -0.235802 -0.126444 0.265105 -0.045509 -0.260055 0.165450 0.001534 0.046837 -0.144330 -0.034307 -0.408544 -0.128182 -0.045577 -0.300823 0.065174 -0.076260 -0.044256 0.019172 0.047268 0.223435 0.301652 -0.242565 -0.175578 0.133426 0.236824 0.056284 
mm809 -0.121413 -0.084701 0.259442 0.026481 0.069523 -0.107460 0.489688 0.069084 -0.254367 -0.093717 0.150527 -0.248543 -0.313856 -0.192076 0.168811 0.242943 0.220781 0.350563 0.159003 0.000692 -0.212587 -0.012638 -0.135070 0.029829 -0.441059 -0.155346 0.467197 0.032398 -0.055620 0.175746 -0.009146 0.176267 0.026496 0.018542 -0.259935 -0.227517 0.022331 -0.228921 -0.077573 -0.019869 -0.043809 0.049211 0.005027 0.089079 0.397193 -0.173216 -0.110240 0.224989 0.056553 -0.038571 
mm1021 0.032111 -0.020520 0.178258 -0.044890 0.044519 -0.253739 0.276161 0.097365 -0.308500 -0.097114 0.001235 -0.135238 -0.207255 -0.242738 0.247375 0.210500 0.142295 0.150999 0.279614 -0.033294 -0.316928 0.076868 -0.075605 0.077636 -0.359257 -0.084853 0.209635 0.007773 -0.263636 0.184302 0.070250 0.132450 -0.023139 -0.034449 -0.384944 -0.168040 0.024832 -0.352569 0.166273 -0.123082 0.084278 0.074073 0.142683 0.102420 0.180002 -0.229329 -0.180320 0.154731 0.117219 -0.111280 
mm538 0.081181 -0.008077 0.160005 -0.004221 0.057243 -0.072160 0.295125 -0.105738 -0.273638 -0.007879 0.018897 -0.262204 -0.149407 -0.121765 0.217769 0.232117 0.228494 0.206650 0.117081 -0.059570 -0.214799 0.126119 -0.121558 0.067028 -0.315063 -0.142016 0.245930 -0.004411 -0.346924 0.027689 0.112663 0.122328 0.027126 -0.069143 -0.361265 -0.002715 -0.159628 -0.264954 0.079819 0.016894 0.038741 0.150470 0.033424 0.189260 0.329124 -0.186999 -0.063136 0.181059 0.238156 0.035619 
mm492 -0.163884 0.061679 0.197767 0.037904 -0.022864 -0.225733 0.262160 -0.096375 -0.194625 -0.008105 -0.049190 -0.175065 -0.233325 -0.287686 0.169076 0.304010 0.043572 0.088087 0.136867 0.061189 -0.246852 -0.033600 -0.141296 0.139344 -0.465772 -0.018080 0.269725 0.032357 -0.183202 -0.011149 0.019593 0.164484 -0.187213 -0.075939 -0.427725 -0.095665 -0.011702 -0.247692 -0.013140 0.184331 0.044404 0.161687 0.176242 0.095354 0.358604 -0.098234 -0.066073 0.249595 0.103672 -0.115004 
mm838 -0.039960 -0.010550 -0.114454 -0.101550 0.108716 -0.250886 0.151636 -0.089102 -0.299818 -0.064465 -0.018332 -0.219409 -0.383363 -0.143120 0.119896 0.156992 -0.090529 0.252567 0.094372 -0.325498 -0.210457 0.037397 -0.030564 0.080312 -0.256927 -0.284983 0.348742 -0.088443 -0.410101 0.206135 0.003993 0.095845 0.045994 -0.240080 -0.439579 -0.090273 -0.040158 -0.332268 0.089310 0.067182 0.058163 0.204629 0.200752 0.180245 0.213066 -0.160645 -0.181517 0.080049 0.332332 -0.008733 
mm522 -0.257214 0.117149 0.438434 0.093911 0.085724 -0.121782 0.164214 0.061469 -0.042812 -0.240054 -0.114494 -0.249123 -0.398111 -0.013391 -0.167512 0.190745 0.275457 0.075017 -0.013041 -0.126056 -0.191090 -0.026507 -0.055023 0.118838 -0.474720 -0.070310 0.242787 -0.041904 -0.331062 0.092548 0.142470 0.125064 -0.103387 -0.100657 -0.213647 0.118867 -0.031844 -0.428386 0.096687 -0.083375 -0.196893 0.014320 0.274671 0.398920 0.384064 0.034208 -0.027856 0.354340 0.141103 -0.216280 
mm91 0.087320 0.054769 0.201286 -0.189763 0.207263 0.050261 0.292487 -0.045771 -0.191040 -0.172895 0.062316 -0.140841 -0.091878 -0.267163 0.254537 0.108500 0.144506 0.165789 0.183717 -0.090435 -0.179158 -0.000782 -0.206251 -0.049543 -0.426751 -0.081970 0.341602 -0.053456 -0.380082 0.202052 0.016884 0.021065 -0.199098 -0.069997 -0.346025 0.002241 -0.027105 -0.222451 0.145589 -0.056944 0.125784 0.177959 -0.099183 0.305449 0.301419 -0.265166 -0.180654 0.169241 0.269690 0.039236 
mm647 0.016566 -0.073380 0.192719 -0.064494 0.019972 -0.181975 0.380308 -0.015697 -0.211373 -0.075500 0.109333 -0.122991 -0.232717 -0.213907 0.238818 0.196699 0.150243 0.189419 0.142802 -0.030390 -0.274770 0.031717 -0.141274 0.068731 -0.410245 -0.187693 0.188320 -0.036190 -0.297881 0.101315 0.023457 0.148525 -0.114168 -0.132282 -0.358824 -0.115524 -0.022599 -0.320469 0.028290 -0.074937 -0.075591 0.015476 -0.000297 0.170027 0.305573 -0.162738 -0.126582 0.195442 0.117248 -0.028344 
mm366 0.096516 0.189483 0.344157 0.050408 -0.145821 -0.288525 0.283985 -0.002851 -0.425673 0.023432 0.117131 -0.241703 -0.110363 -0.157865 0.288051 0.117305 0.100776 0.354818 -0.037749 0.116996 -0.204871 0.089464 -0.196053 0.073220 -0.493319 -0.279854 0.523053 -0.090956 -0.463841 -0.183899 -0.106788 0.019540 -0.312003 -0.227307 -0.377044 -0.057104 0.000112 -0.159786 -0.079602 -0.231995 -0.047192 0.030312 0.260582 0.002770 0.265312 0.026677 -0.277837 0.309171 0.145751 -0.088795 
mm726 -0.130571 -0.057420 0.218299 -0.210895 0.122428 -0.186251 0.279416 -0.121765 -0.112108 -0.048066 -0.014542 -0.158594 -0.211986 -0.114657 0.200334 0.234162 0.152741 0.154423 0.041567 -0.286824 -0.036221 0.173773 -0.291222 0.023024 -0.291069 0.017452 0.183686 -0.125072 -0.416365 0.110575 0.059337 0.051744 -0.123899 -0.003359 -0.337894 -0.071985 -0.049664 -0.363313 0.118539 -0.005539 0.060327 0.039289 0.117071 0.264109 0.288239 -0.054988 -0.077444 0.239669 0.332003 -0.226690 
mm391 -0.063845 -0.097125 -0.002342 -0.270026 0.155486 0.002272 0.066442 -0.109361 -0.270393 -0.010624 0.069622 0.093923 -0.302474 -0.244200 0.003918 0.186265 0.170294 -0.063090 0.046513 0.062438 -0.440700 0.060405 -0.305261 0.112519 -0.319959 0.012197 0.121707 0.210454 -0.362767 -0.120805 0.260738 0.231194 -0.154327 -0.245420 -0.528556 0.034982 -0.157683 -0.377175 0.385486 0.211869 -0.064500 -0.031735 -0.112194 0.468064 0.602533 -0.044330 0.078874 0.139378 0.147054 -0.315690 
mm186 -0.005871 0.024589 0.080389 -0.101909 -0.011249 -0.000759 0.253194 -0.094757 -0.292260 -0.019532 0.143048 -0.177917 -0.285920 -0.300711 0.179685 0.134456 0.209771 0.059598 0.236064 -0.045459 -0.144750 -0.000084 -0.162202 0.022870 -0.386243 -0.116672 0.132519 -0.130773 -0.328654 0.130326 0.154954 0.185962 -0.097610 -0.075602 -0.494636 0.039447 -0.028866 -0.316080 -0.063934 -0.008159 0.042804 0.154118 -0.020620 0.267954 0.382230 -0.141764 -0.050448 0.178698 0.259382 -0.042950 
mm586 -0.006648 -0.079297 0.146388 -0.002977 -0.049236 -0.224162 0.282146 -0.136262 -0.190150 -0.078588 0.051012 -0.269526 -0.194047 -0.152511 0.285694 0.136540 0.173888 0.327287 0.123943 -0.064693 -0.271215 0.006410 -0.350229 0.081952 -0.453429 0.003111 0.090984 0.075198 -0.330976 0.126976 -0.100219 0.161201 0.002730 -0.074301 -0.515901 -0.111684 -0.110595 -0.190464 0.158732 -0.078591 -0.081127 0.047948 -0.005997 0.213740 0.289258 -0.298280 -0.173044 0.164194 0.130615 0.075797 
mm627 -0.012544 -0.103127 -0.033809 -0.139925 0.257852 -0.114993 0.450148 -0.063660 -0.116869 0.081492 -0.029400 0.050145 -0.188565 -0.313913 0.245723 0.147143 0.059036 -0.044097 0.154970 -0.179942 -0.303930 0.040316 -0.279438 0.172342 -0.392608 -0.162282 0.138672 0.066378 -0.264039 0.159497 0.180943 0.085421 -0.221935 0.084068 -0.501921 -0.075768 -0.294700 -0.385356 -0.059887 -0.140041 -0.005860 0.073432 0.129453 0.299001 0.192899 -0.124726 -0.204801 0.008601 0.270728 0.040463 
mm161 -0.012186 0.013428 0.132220 -0.162788 0.027968 -0.125405 0.300373 -0.051491 -0.276274 -0.024829 -0.025282 -0.238302 -0.057145 -0.193432 0.297541 0.321540 0.048265 0.115494 0.223503 -0.179449 -0.126131 -0.008638 -0.291493 0.129446 -0.283136 -0.042529 0.213244 -0.061921 -0.331924 0.033529 -0.001775 0.207994 -0.225716 -0.139225 -0.257759 -0.129975 -0.161409 -0.398489 0.254461 0.080136 -0.068708 0.077943 -0.203873 0.273067 0.295997 -0.264866 -0.302806 0.270323 0.096715 0.026064 
mm529 -0.300672 0.429886 0.397193 0.225233 0.223667 0.330645 0.373544 0.131471 -0.325852 -0.122221 0.040192 -0.091753 -0.089963 -0.101318 0.470844 0.084282 0.281383 0.088038 0.142623 0.240427 -0.081695 -0.055358 -0.557544 0.213834 -0.206552 -0.294513 0.268444 0.248015 0.019472 -0.078806 0.194993 0.168419 -0.397495 0.021441 -0.479731 -0.029512 -0.276705 -0.187561 0.553289 0.296855 0.061066 0.150576 -0.169456 0.420990 0.343638 -0.358349 0.049126 0.246092 -0.074757 -0.192720 
mm315 -0.146892 0.103389 0.037242 0.010208 0.172702 -0.186341 0.398448 0.096605 -0.258734 -0.172878 -0.071860 -0.187007 -0.392258 -0.074940 0.281885 0.129135 0.001117 -0.035155 0.017656 -0.337974 -0.249198 0.052565 -0.049031 0.086218 -0.427336 0.025330 0.251285 -0.023375 -0.109057 0.105685 -0.083465 0.176026 0.084000 -0.239228 -0.414171 0.136210 -0.072232 -0.405095 0.315801 -0.200908 -0.169888 0.288396 0.025449 0.285500 0.240838 -0.207334 -0.287367 0.199457 -0.014893 0.027448 
mm634 -0.045334 -0.099435 0.328529 -0.091710 0.024402 -0.200167 0.318070 -0.006148 -0.272838 0.146352 -0.006129 -0.168925 -0.201291 -0.255452 0.148564 0.236630 0.271868 0.151433 0.294681 -0.232166 -0.104976 0.054968 -0.120764 -0.205381 -0.315831 -0.057658 0.383516 0.124058 -0.244201 -0.076782 0.103781 0.238489 -0.208505 0.167893 -0.492755 -0.083894 0.201481 -0.231846 0.071790 -0.002833 -0.059557 0.200606 0.074274 0.288493 0.109444 -0.239152 -0.121410 0.471817 0.017405 -0.041461 
mm546 0.012325 0.025841 0.216338 0.082245 -0.038941 -0.118772 0.516102 -0.050828 -0.182759 0.141903 -0.118061 -0.113117 -0.231522 -0.425576 0.245830 0.320743 -0.080840 0.202631 0.106426 0.129437 -0.179716 0.064360 -0.028399 -0.043393 -0.456305 -0.099589 0.246360 -0.061762 -0.347748 0.062038 0.004613 0.224966 -0.142244 0.028257 -0.388999 -0.140211 0.193384 -0.246122 0.030183 -0.034892 -0.029925 0.093752 0.042827 0.064872 0.347483 -0.225368 -0.293099 0.220668 0.078156 -0.058269 
mm488 -0.069988 -0.154193 0.127764 0.051926 -0.181109 -0.068174 0.230625 -0.074689 -0.269968 -0.034281 -0.001865 -0.199572 -0.124908 -0.346564 0.084315 0.210876 0.120824 0.390841 0.193831 0.030345 -0.184836 0.301117 -0.211217 -0.058192 -0.586532 0.150205 0.107936 -0.155265 -0.195721 0.101020 -0.008190 0.134374 -0.030248 -0.217978 -0.608578 0.027163 0.328878 -0.375207 0.034683 -0.046938 0.024581 -0.096690 0.069867 0.217395 0.321911 -0.252026 -0.034245 0.121696 0.285124 -0.168805 
mm521 0.230688 -0.031086 0.097528 0.046723 -0.029771 0.075365 0.224051 0.091951 -0.152943 -0.214888 -0.078993 -0.163897 -0.073676 -0.327188 0.345121 0.185214 0.090760 0.270041 0.129493 -0.262323 -0.327461 0.108385 -0.385960 -0.075787 -0.426062 -0.046995 0.338568 0.178825 -0.187329 0.038778 0.167618 -0.029625 -0.123787 -0.071174 -0.328924 0.048994 -0.054500 -0.209760 0.241162 -0.087627 -0.056300 0.138772 -0.158344 0.372745 0.317335 -0.240595 -0.158075 0.307756 0.089990 -0.197362 
mm444 0.229101 0.124021 0.041860 -0.053990 -0.074053 -0.067044 0.537764 0.162408 -0.157745 -0.126705 0.311110 -0.088917 -0.309931 -0.134093 0.194434 0.368708 0.075333 0.206499 0.132234 -0.340763 -0.005023 -0.052324 -0.311356 0.050621 -0.210303 0.018747 0.437043 0.344781 -0.186751 -0.072430 0.148289 0.086561 -0.213844 0.160042 -0.487994 0.156943 0.157693 -0.565473 0.168565 -0.140130 -0.005412 0.150008 0.031670 0.336636 0.065931 0.038403 -0.199764 0.022033 0.188579 -0.055018 
mm948 -0.121275 -0.019371 0.266372 -0.055090 0.258389 -0.148090 0.220384 0.160010 -0.115103 -0.156409 -0.101810 -0.176007 -0.105529 -0.149928 0.210276 0.228098 0.146864 0.290204 0.111105 0.042592 -0.224332 0.012026 -0.073172 0.300500 -0.439813 -0.189013 0.130171 -0.071414 -0.247354 0.030390 0.045052 0.138363 -0.190132 -0.066579 -0.478438 -0.300571 -0.127693 -0.404963 -0.010070 0.026986 -0.208007 0.007460 -0.225518 0.213374 0.454805 -0.197103 0.018432 0.144173 0.213139 0.059076 
mm94 -0.041790 -0.001705 0.116238 -0.055322 0.051215 -0.125348 0.279651 -0.010062 -0.245928 -0.040974 -0.000247 -0.113761 -0.131470 -0.273530 0.214107 0.272988 0.142573 0.182566 0.122355 -0.031302 -0.190072 0.133723 -0.185246 -0.013127 -0.367485 -0.038426 0.219605 -0.008418 -0.273590 -0.006087 -0.030447 0.186979 -0.140965 -0.059794 -0.451631 -0.106295 -0.043770 -0.334973 -0.047160 -0.018060 0.004550 0.062977 0.018870 0.243032 0.323845 -0.114780 -0.120204 0.142170 0.175171 -0.066832 
mm1129 -0.199094 -0.049898 -0.079428 -0.228994 0.019732 -0.323150 0.271262 0.013127 -0.205465 0.152801 0.190060 -0.176936 -0.159684 -0.119435 0.236755 0.201787 0.050660 0.211110 0.394882 -0.156330 -0.123586 0.181397 -0.241947 0.136649 -0.294973 -0.015888 0.185236 0.022447 -0.458803 -0.039122 0.332430 -0.058746 -0.103019 0.024515 -0.584103 -0.096435 -0.045615 -0.204901 -0.003092 -0.101033 -0.067332 0.062926 -0.141297 0.186510 0.293412 -0.277913 0.009616 0.153018 0.046669 -0.177799 
mm67 -0.038108 -0.098687 0.251648 -0.046574 -0.048470 -0.082955 0.259675 -0.087222 -0.178564 -0.046093 0.134699 -0.188386 -0.366336 -0.221781 0.313272 0.230510 0.181374 0.101379 0.092602 0.046750 -0.012463 0.162565 -0.169548 -0.074280 -0.538757 -0.026491 0.259353 0.000865 -0.351930 0.070869 0.028748 0.202399 -0.091753 -0.006911 -0.367279 -0.003256 0.121696 -0.345538 0.016292 -0.001334 0.083539 0.003021 0.003735 0.183128 0.290149 -0.179280 -0.222196 0.339929 0.176260 -0.061914 
mm9 -0.077885 0.002050 0.111889 -0.039429 -0.086248 -0.255636 0.346969 -0.052561 -0.146818 0.054864 0.001629 -0.239702 -0.209172 -0.255456 0.192158 0.204655 0.087440 0.323906 0.193280 -0.040725 -0.259383 0.038456 -0.136684 0.104808 -0.446850 -0.136650 0.221461 0.049847 -0.293174 0.235207 0.006639 0.284429 -0.150352 -0.099908 -0.263283 -0.182418 -0.086694 -0.351164 -0.042805 0.053674 0.056772 0.088375 0.127913 0.105371 0.277853 -0.137054 -0.176376 0.319931 0.056626 -0.008246 
mm628 -0.067725 0.022059 0.187822 0.080760 0.077594 0.054207 0.336322 -0.017314 -0.101582 0.033591 0.173090 -0.050562 -0.185030 -0.172085 0.300611 0.080082 0.112751 0.172647 0.062194 -0.080690 -0.062661 0.064832 -0.126791 0.057783 -0.408211 -0.127021 0.375641 0.092159 -0.260593 0.080747 0.063865 0.141738 -0.107991 0.118586 -0.375614 -0.145277 -0.086464 -0.285278 0.035878 0.026224 -0.099579 -0.011940 0.088862 0.270526 0.400753 -0.252383 -0.171411 0.270885 0.333029 -0.068139 
mm844 -0.240090 0.096716 -0.054060 -0.034421 -0.056270 -0.036361 0.254267 0.054070 -0.378337 -0.027083 0.102009 -0.219543 -0.289157 -0.161564 0.322711 0.186707 0.165261 0.164313 0.080062 0.033238 -0.247490 0.039624 0.025505 0.224636 -0.494019 -0.047977 0.287862 0.184788 -0.320250 0.131893 0.047588 -0.014228 -0.068264 -0.322081 -0.239532 -0.078983 0.025943 -0.455547 0.159990 -0.085531 0.090051 0.197911 -0.050725 0.237851 0.291520 0.138100 -0.182864 0.159451 0.204806 -0.040605 
mm531 0.153439 0.009664 0.136517 -0.031316 -0.092121 -0.251744 0.343698 -0.142610 -0.281818 -0.122275 0.122165 -0.244138 -0.355662 -0.174308 0.160522 0.283107 0.169953 0.292693 0.160913 -0.061604 -0.252113 0.157434 -0.089875 0.102887 -0.434770 -0.095566 0.150733 0.039872 -0.215236 0.162625 0.165212 0.130190 -0.144371 -0.047991 -0.274444 0.009744 -0.058810 -0.248825 0.039428 0.010418 -0.061717 0.144676 0.027999 0.295207 0.293412 -0.148590 -0.018704 0.132795 0.187850 0.036102 
mm592 -0.054189 0.051464 0.191699 -0.046704 -0.091976 -0.087210 0.275267 0.072152 -0.189658 0.018189 -0.044641 -0.205662 -0.136054 -0.134092 0.416486 0.395651 0.006849 0.350560 0.204251 -0.089437 -0.222729 -0.093840 -0.154257 -0.030641 -0.373855 -0.130217 0.316429 0.131486 -0.371247 0.008400 0.072915 0.108728 -0.038553 -0.055667 -0.516786 -0.096570 0.041061 -0.305589 0.020729 0.123648 0.116495 -0.021333 0.078617 0.132406 0.227206 -0.254152 -0.063795 0.278949 0.199219 -0.050117 
mm544 0.010846 0.055233 0.166679 -0.016866 0.015365 -0.140160 0.402626 -0.071857 -0.197808 -0.087673 0.026479 -0.182268 -0.187625 -0.178840 0.241696 0.152065 0.173897 0.182615 0.137930 -0.031423 -0.239150 0.080147 -0.130990 0.153577 -0.383308 -0.081823 0.237554 0.006557 -0.343426 0.085786 0.095316 0.136198 -0.178462 -0.029683 -0.352265 -0.015148 -0.015095 -0.357527 0.127349 -0.034851 0.003079 0.059317 -0.004606 0.241649 0.255047 -0.049593 -0.069167 0.176376 0.128531 0.010359 
mm465 0.099034 0.108932 0.185518 -0.067120 -0.058909 0.038631 0.329145 0.252011 -0.229835 -0.231297 -0.230606 -0.206644 -0.103059 -0.369253 0.396672 0.238756 0.097313 0.231102 0.136812 -0.152201 0.003641 0.074147 0.058230 0.088942 -0.451630 -0.128736 0.238858 0.075650 -0.432708 0.182811 0.083291 0.026504 -0.134496 -0.075412 -0.256626 0.069461 0.074901 -0.219409 0.104373 0.069749 -0.004779 0.115339 0.220127 0.266124 0.322798 -0.177791 -0.095762 0.179819 0.234945 -0.060482 
mm40 0.023756 -0.124231 0.147161 -0.092362 0.079991 -0.111647 0.195202 0.078345 -0.162899 -0.091645 0.003828 -0.135989 -0.138937 -0.248640 0.171065 0.134801 0.041418 0.240299 0.120612 -0.094954 -0.361809 0.094439 -0.115301 -0.012908 -0.461794 -0.044731 0.308617 0.044574 -0.361899 0.119880 0.085576 0.130187 -0.031544 -0.085369 -0.417063 -0.196478 0.058257 -0.448783 0.149264 -0.027578 -0.107742 0.115760 0.115746 0.213442 0.186235 -0.183346 -0.077915 0.127514 0.114162 -0.075048 
mm562 -0.120921 0.313989 0.306610 0.086140 0.272127 0.145179 0.441545 0.097827 -0.342674 -0.029060 0.046274 -0.094948 -0.125325 -0.174062 0.319571 0.265170 0.101373 0.073209 0.125568 -0.036672 -0.059736 0.098285 -0.207380 0.058033 -0.275436 -0.205047 0.184467 0.107498 -0.058575 0.031268 0.282620 0.199224 -0.275988 -0.051031 -0.298982 0.051219 -0.153049 -0.312991 0.348373 0.297225 -0.085715 0.060884 -0.203767 0.263934 0.318353 -0.260091 -0.118640 0.316390 0.250186 -0.205819 
mm869 -0.208357 -0.065279 0.031464 -0.244512 -0.190747 -0.053873 0.412151 -0.066153 -0.370759 -0.131231 0.087908 -0.248635 -0.022817 -0.342375 0.376516 0.305470 0.198382 -0.034857 0.098818 -0.111568 -0.226972 0.091469 -0.080505 0.116501 -0.383640 -0.135042 0.290344 0.045950 -0.288831 0.106260 0.042059 0.042484 -0.025806 -0.113956 -0.270933 -0.171674 -0.174228 -0.239212 -0.030327 0.237845 -0.127144 0.155572 -0.060817 0.258700 0.365273 -0.064786 -0.237235 0.145525 0.004875 0.059046 
mm863 0.078076 0.001713 0.228504 -0.021376 0.027789 -0.180377 0.280971 -0.153550 -0.206703 -0.060860 0.029329 -0.217098 -0.109651 -0.280438 0.357442 0.156094 0.025700 0.081417 0.184492 0.092719 -0.136379 0.126309 -0.151854 0.102394 -0.482522 -0.147226 0.271884 -0.162696 -0.248087 0.140963 -0.000607 0.076878 -0.131824 -0.047590 -0.419516 -0.081306 -0.010941 -0.372737 -0.083188 -0.123772 0.059074 0.009602 0.220327 0.088203 0.343789 -0.225475 -0.145370 0.204830 0.017880 -0.041595 
mm742 -0.133142 0.110621 0.043301 0.043302 0.020725 -0.234668 0.482567 0.059487 -0.251189 -0.166629 -0.095629 -0.176362 -0.389435 -0.102491 0.287536 0.108320 0.069208 0.011243 0.053891 -0.278657 -0.283116 0.075553 -0.063466 0.080013 -0.465263 0.018895 0.326470 -0.024312 -0.106126 0.087960 -0.170232 0.211013 0.030378 -0.263890 -0.471345 0.061633 0.008952 -0.446705 0.284203 -0.148887 -0.126849 0.259830 -0.039851 0.283445 0.270262 -0.162501 -0.264930 0.192997 -0.014983 0.096110 
mm779 0.096876 -0.045286 0.072970 -0.051508 0.135625 -0.016539 0.379529 0.201884 -0.124382 -0.013784 0.134005 -0.042009 -0.157510 -0.243994 0.237106 0.293866 0.031473 0.302142 0.281676 0.055704 -0.231697 0.145652 -0.059819 0.026472 -0.318423 -0.068227 0.302114 -0.063471 -0.129531 0.075073 -0.016104 0.068826 -0.356664 -0.020610 -0.470837 -0.100595 -0.018271 -0.201527 -0.010294 0.008387 -0.098926 0.013591 -0.074945 0.073797 0.596942 -0.299442 0.003225 0.130188 0.433501 -0.213921 
mm940 0.037146 0.080820 0.182058 -0.090474 0.076328 -0.086520 0.256134 0.055671 -0.185535 0.015066 0.055878 -0.140007 -0.205438 -0.102952 0.236181 0.238455 0.096161 0.176122 0.207546 -0.077566 -0.097846 0.113465 -0.133448 0.034727 -0.407480 -0.114275 0.252440 -0.038839 -0.271422 0.180974 -0.028947 0.203524 -0.164811 -0.057796 -0.404846 -0.057085 -0.062655 -0.325099 -0.004717 0.073518 -0.006877 0.062592 0.081969 0.219899 0.259841 -0.181020 -0.191265 0.288044 0.136970 -0.141964 
mm656 0.073944 0.094921 0.151062 -0.162060 0.063330 -0.166818 0.337093 0.072127 -0.262142 -0.067161 0.118590 -0.160633 -0.145124 -0.150886 0.198227 0.273395 0.206455 0.237116 0.170917 0.068916 -0.177861 -0.027367 -0.135168 0.110882 -0.290990 -0.069742 0.194183 -0.003315 -0.216579 0.214081 0.105886 0.139460 -0.153312 -0.082183 -0.442696 -0.053057 -0.190192 -0.239157 0.208498 -0.009861 -0.175082 -0.105116 -0.105232 0.328268 0.436513 -0.255237 -0.078947 0.089028 0.077632 -0.141631 
mm635 0.016814 -0.047515 0.285861 -0.077695 -0.022173 0.028569 0.399037 -0.071868 -0.091281 -0.113610 0.162713 -0.123513 -0.371311 -0.192606 0.223250 0.180128 0.180518 0.255856 0.183991 -0.053293 -0.225118 0.064572 -0.091902 -0.088265 -0.411623 -0.186136 0.138114 0.053038 -0.200250 -0.031994 0.102801 0.139968 -0.074465 0.015854 -0.325042 -0.140143 0.026795 -0.390472 0.083125 0.059861 -0.008645 0.116707 0.067179 0.128872 0.405552 -0.182287 -0.080825 0.035204 0.270143 -0.278340 
mm165 -0.128300 -0.125032 0.341748 -0.142088 0.079265 -0.163915 0.266038 -0.013857 -0.259558 0.079196 -0.019774 -0.246625 -0.128572 -0.254652 0.169642 0.247930 0.333688 0.118376 0.315769 -0.342394 -0.025198 0.077552 -0.058974 -0.185333 -0.308756 -0.109808 0.253085 0.194085 -0.302813 -0.086261 0.111753 0.248570 -0.218225 0.254233 -0.474916 -0.096941 0.149477 -0.171320 0.106746 -0.039802 -0.076189 0.291711 0.124843 0.305326 0.038455 -0.227430 -0.094072 0.495792 0.061118 -0.027865 
mm720 -0.069118 -0.093067 0.110864 -0.048470 -0.009347 -0.111534 0.387980 -0.113756 -0.156266 -0.060163 0.038286 -0.180640 -0.226334 -0.161497 0.193410 0.143163 0.187812 0.074937 0.179937 -0.112389 -0.184436 0.082884 -0.190807 -0.012810 -0.329022 -0.171326 0.239776 -0.020996 -0.312892 0.120826 0.100113 0.194409 -0.126390 -0.119556 -0.309380 -0.037834 -0.038733 -0.360641 0.040190 0.045182 -0.044340 0.138668 0.092972 0.203303 0.359958 -0.115092 -0.013836 0.183336 0.155588 -0.058078 
mm747 -0.013817 0.129393 0.159297 0.009725 -0.035039 -0.240592 0.267099 0.046855 -0.150330 -0.027538 -0.001198 -0.237999 -0.250605 -0.205710 0.249682 0.151022 0.133240 0.202839 0.151747 -0.112544 -0.233703 0.064750 -0.115688 -0.037097 -0.437752 -0.161980 0.256957 0.036197 -0.356235 0.141261 0.066051 0.168255 -0.213536 -0.021098 -0.313637 -0.158332 -0.070025 -0.359956 0.053513 0.012791 -0.071764 0.067203 0.028910 0.263354 0.336321 -0.166679 -0.089500 0.159988 0.109879 -0.081085 
mm15 0.014928 -0.067278 0.163055 0.005785 -0.054231 -0.241327 0.332809 -0.035017 -0.223238 -0.002694 -0.058898 -0.178032 -0.268591 -0.168448 0.135861 0.253531 0.050644 0.165483 0.140581 -0.082976 -0.212857 0.104639 -0.103789 0.048937 -0.422551 -0.110482 0.276199 -0.039624 -0.286064 0.109935 0.093139 0.155571 -0.130002 -0.049554 -0.383175 -0.136902 -0.043546 -0.350529 0.018717 0.033787 -0.071593 0.009170 0.038186 0.216225 0.318522 -0.151405 -0.137395 0.213980 0.087968 -0.058911 
mm2 -0.013833 -0.018088 0.064036 -0.079306 -0.043103 -0.053316 0.350475 -0.073437 -0.174846 0.027069 -0.015008 -0.102144 -0.176229 -0.199625 0.259007 0.171667 0.148275 0.183180 0.155434 -0.120566 -0.112596 0.233998 -0.099095 -0.068189 -0.460054 -0.120459 0.341309 -0.027917 -0.220167 0.246939 0.102239 0.038851 -0.152023 -0.012996 -0.318443 -0.108361 -0.094216 -0.343115 -0.043304 -0.010684 0.032372 -0.077245 0.109278 0.215368 0.320690 -0.222206 -0.079580 0.229261 0.175544 -0.047871 
mm649 0.007469 -0.032014 0.154934 0.129235 -0.053125 -0.139864 0.287569 -0.026230 -0.228693 -0.103436 0.166880 -0.194987 -0.223266 -0.231652 0.069514 0.330898 0.203413 0.057740 0.239132 -0.003625 -0.290066 0.199286 -0.115673 0.114180 -0.343163 -0.090987 0.382618 0.000410 -0.117098 0.110735 0.094536 0.130562 -0.237660 -0.010228 -0.356199 -0.107407 -0.123269 -0.316906 0.118153 -0.031102 -0.042107 -0.064961 0.082728 0.077892 0.517383 -0.178145 0.005560 0.204404 0.138853 -0.118895 
mm777 0.095245 -0.074384 0.252250 -0.075233 -0.034251 -0.322351 0.254975 -0.010523 -0.190075 0.036634 0.003701 -0.180724 -0.293828 -0.175034 0.165234 0.317870 0.118070 0.165547 0.224335 -0.118715 -0.116848 0.087164 -0.142547 0.036420 -0.378970 -0.220594 0.212504 -0.028717 -0.345699 0.182210 0.105575 0.194576 -0.117488 -0.168145 -0.323272 -0.068257 -0.141799 -0.161879 -0.061075 0.002748 0.012702 0.094873 0.125219 0.187302 0.336485 -0.123115 -0.008767 0.149508 0.267863 -0.038992 
mm872 0.023910 -0.059963 0.057777 0.179329 0.075240 -0.054832 0.253336 -0.052115 -0.121163 -0.074987 0.120183 -0.225655 -0.178983 -0.176051 0.270635 0.112037 0.164578 0.164641 0.180886 -0.104730 -0.185958 0.087489 -0.092872 0.088829 -0.386292 -0.138587 0.270711 0.006083 -0.238066 0.074276 0.151796 0.180111 -0.059299 -0.101254 -0.370425 -0.131293 -0.091283 -0.285149 0.128983 0.012934 -0.046322 0.117105 0.069210 0.198189 0.390928 -0.194395 -0.059442 0.207889 0.095415 -0.135027 
mm38 -0.021678 0.019672 0.287801 -0.137752 -0.106159 -0.192816 0.407141 0.040512 -0.232897 0.041800 0.044437 -0.163668 -0.143962 -0.328821 0.257227 0.211618 0.090505 0.262820 0.215325 0.019658 -0.233415 -0.021405 -0.152788 0.033251 -0.445671 -0.102435 0.247727 -0.004701 -0.224539 0.064018 0.103059 0.133570 -0.202636 -0.012694 -0.359451 -0.069635 -0.004808 -0.184731 -0.038793 0.101437 -0.039418 0.017090 -0.007292 0.204292 0.340721 -0.203149 -0.177358 0.228627 0.155455 -0.044436 
mm281 -0.034631 0.012212 0.051977 -0.090398 -0.012878 -0.013196 0.237923 -0.036724 -0.250314 -0.071694 0.136978 -0.175999 -0.282986 -0.311710 0.203748 0.113323 0.217018 0.051843 0.222126 -0.041421 -0.134792 -0.031603 -0.192202 0.008745 -0.355099 -0.144760 0.113418 -0.138442 -0.336236 0.066210 0.170848 0.143195 -0.109031 -0.075318 -0.511218 0.039008 -0.046807 -0.331296 -0.061210 -0.011375 -0.001183 0.145308 0.008783 0.310895 0.404729 -0.147700 0.017153 0.160165 0.209830 -0.056151 
uu1021 0.075979 0.021648 -0.153505 -0.002504 -0.073804 0.124933 -0.359797 0.026081 0.294811 0.154536 -0.096173 0.205866 0.244014 0.188348 -0.314112 -0.165789 -0.176837 -0.149686 -0.206765 0.236084 0.122023 -0.181675 0.145257 -0.131718 0.421002 0.200785 -0.151916 -0.041143 0.320440 -0.111162 0.028130 -0.081453 0.155689 0.017768 0.388034 0.036104 0.159687 0.238980 -0.160767 0.059164 0.083207 -0.171590 -0.047568 -0.286601 -0.354198 0.122276 0.100962 -0.106176 -0.333671 0.190600 
mm126 0.006027 -0.046423 -0.002629 -0.026253 0.139017 0.017089 0.115943 -0.213392 -0.256186 -0.128166 -0.002376 -0.024141 -0.200705 -0.238104 0.151754 0.075132 0.179616 0.113796 0.227906 0.022525 -0.309832 0.332977 -0.130065 -0.005216 -0.469385 -0.085897 0.219576 -0.072087 -0.302873 0.299573 0.155094 0.114907 -0.267212 0.040597 -0.304652 -0.126836 0.166089 -0.223842 0.196298 -0.154618 0.028177 0.047625 -0.034298 0.080984 0.529580 -0.017571 -0.082107 0.515974 0.167994 -0.095898 
mm36 0.023398 -0.037776 0.184630 -0.055083 0.001607 -0.111958 0.275134 0.020646 -0.211652 0.028212 -0.054061 -0.087185 -0.236998 -0.160352 0.202016 0.285660 0.104641 0.184176 0.202355 -0.030248 -0.168907 0.123241 -0.124444 0.033741 -0.381558 -0.189181 0.275697 0.091369 -0.248027 0.032919 0.085136 0.292426 -0.174335 -0.044355 -0.394432 -0.166742 -0.082518 -0.276429 0.035302 -0.011838 -0.038494 0.071384 0.140700 0.167812 0.401356 -0.152980 -0.058251 0.211016 0.134318 0.002061 
mm1155 -0.041594 -0.479756 0.479003 -0.049319 0.037726 -0.226971 -0.065021 -0.432761 -0.055095 -0.421211 -0.541032 0.194815 -0.199768 -0.358328 -0.338286 0.374669 0.215307 -0.035819 0.209198 -0.427452 -0.208851 0.501508 -0.435750 0.251506 -0.163627 -0.162029 -0.028192 0.238963 -0.296837 -0.017576 -0.273159 0.169432 0.125793 -0.396405 -0.606977 0.146741 -0.148688 -0.222973 -0.247962 0.398840 0.305551 -0.109815 -0.143405 -0.099880 0.208867 -0.317222 0.078674 -0.216438 0.593106 -0.526764 
mm617 0.235767 -0.060420 0.098600 0.003293 -0.025985 0.150562 0.191569 0.109798 -0.123259 -0.227710 -0.039196 -0.226128 -0.067846 -0.309712 0.401374 0.080103 0.152192 0.313092 0.101113 -0.305926 -0.384349 0.191444 -0.384704 -0.089263 -0.423797 -0.020506 0.268273 0.164951 -0.163577 0.080669 0.172504 -0.046066 -0.127145 -0.045848 -0.301070 0.087588 -0.108919 -0.250205 0.329927 -0.007972 -0.119655 0.141209 -0.196381 0.373808 0.320525 -0.221331 -0.106270 0.308509 -0.003170 -0.188647 
mm201 -0.176200 -0.126486 -0.143782 -0.060677 -0.002210 -0.191055 0.115978 -0.056369 -0.200476 -0.048334 0.213374 -0.236099 -0.317301 -0.160479 0.344675 0.135741 0.152666 0.269835 0.273167 -0.016104 -0.390217 -0.088332 -0.143625 0.181951 -0.274368 -0.170734 0.366661 0.112202 -0.229335 0.207472 0.000842 0.153585 -0.351182 0.030090 -0.417732 0.085329 -0.180056 -0.253745 0.039160 0.080665 -0.182639 0.112907 0.228713 0.154937 0.263040 -0.070917 -0.291410 0.155009 0.120669 -0.112153 
mm845 -0.031800 0.019740 0.118724 0.025313 -0.079065 -0.179063 0.441261 -0.010412 -0.302736 -0.096425 -0.138244 -0.219982 -0.088657 -0.305181 0.347110 0.235828 0.119676 0.324927 0.162651 -0.162834 -0.024232 0.070241 -0.115875 -0.052161 -0.452385 -0.013662 0.258237 0.014251 -0.241859 -0.037000 0.045545 0.069091 -0.082664 -0.146556 -0.381456 -0.050753 -0.178371 -0.279196 0.014171 -0.020325 -0.174857 0.108115 0.072352 0.234085 0.412976 -0.114886 -0.026553 0.289823 0.160718 0.030378 
mm234 -0.056034 0.082419 0.273685 0.031050 0.005540 -0.311464 0.245990 0.048580 -0.269897 -0.239308 -0.108753 -0.296568 -0.168598 -0.077197 0.130906 0.192245 0.133195 0.045025 0.208596 -0.080716 -0.122049 -0.110006 -0.091074 0.137084 -0.483620 -0.029737 0.201492 -0.052257 -0.125146 -0.065125 0.037166 0.253913 -0.220107 -0.170657 -0.453095 -0.173142 -0.256654 -0.429398 -0.188452 0.126447 0.217279 0.182221 0.300964 0.026494 0.224692 -0.034055 -0.085378 0.283670 0.009237 -0.160736 
mm989 -0.006471 0.040676 0.090982 -0.003924 0.076501 -0.234255 0.311845 -0.037392 -0.245390 -0.051797 -0.059042 -0.099341 -0.196005 -0.284201 0.315659 0.233861 0.251332 0.194657 0.087188 -0.095386 -0.111843 0.129329 -0.073327 0.064041 -0.275297 -0.138817 0.217373 0.029044 -0.201161 0.164882 0.048227 0.087952 -0.166179 -0.066616 -0.374696 -0.087273 -0.018906 -0.309769 0.122106 -0.017217 -0.067466 0.168557 0.182001 0.237043 0.224813 -0.124258 -0.168680 0.254694 0.183984 -0.045641 
mm453 -0.416713 0.232073 0.125410 -0.158098 -0.003022 -0.065730 0.165276 -0.071372 -0.246547 -0.008977 -0.123626 0.069175 -0.193710 -0.347965 0.175335 0.186188 0.094315 0.204672 0.171210 0.089662 -0.202520 0.136510 -0.155370 0.149960 -0.504203 0.116009 0.256844 -0.004749 -0.488665 -0.199795 -0.006967 0.124205 -0.189424 -0.120158 -0.475394 -0.148497 -0.129347 -0.466244 -0.057903 0.011205 -0.216789 0.105645 -0.138906 0.073258 0.254784 -0.078175 -0.155200 0.168102 0.095996 -0.224647 
mm450 0.102271 0.125146 0.128329 -0.026918 -0.045332 0.089842 0.344785 0.278603 -0.257824 -0.237729 -0.243191 -0.198801 -0.135618 -0.407379 0.435859 0.241159 0.087785 0.314752 0.139460 -0.115364 0.056158 0.084924 0.078233 0.052015 -0.477086 -0.140779 0.206276 0.080785 -0.487746 0.150310 0.107286 0.052152 -0.163121 -0.111981 -0.242027 0.046171 0.053587 -0.196981 0.120080 0.080846 -0.008943 0.115473 0.227258 0.287053 0.326510 -0.163103 -0.093630 0.234176 0.226465 -0.042782 
mm286 0.019774 -0.006988 0.164112 -0.020972 0.082418 -0.103820 0.217252 -0.066213 -0.172425 -0.074598 0.175272 -0.144226 -0.165536 -0.269956 0.236248 0.183708 0.121780 0.250773 0.144113 -0.161095 -0.222968 0.093224 -0.186506 0.094112 -0.386149 -0.215765 0.210893 -0.109931 -0.112924 0.122681 0.112959 0.118894 -0.166595 -0.016079 -0.424779 -0.101209 -0.178413 -0.260284 0.063033 -0.052630 -0.000383 0.068594 0.119254 0.067335 0.313860 -0.189299 -0.067456 0.215710 0.246270 -0.103517 
mm879 0.019175 -0.049105 0.242520 -0.050771 -0.063375 -0.093694 0.206602 0.092767 -0.185070 -0.197513 0.110798 -0.028670 -0.275101 -0.280802 0.150744 0.178995 0.126890 0.201420 0.364458 -0.116419 -0.165400 0.161608 -0.171298 0.098404 -0.141896 -0.162972 0.236023 0.181467 -0.580370 -0.091079 0.120977 0.074185 -0.163522 -0.223811 -0.406162 0.026799 0.105159 -0.247523 0.229355 -0.070390 -0.056121 0.111995 0.282106 0.272697 0.377315 -0.233256 -0.198402 0.030039 0.136209 0.040076 
mm384 0.144906 -0.004590 0.219812 -0.006460 0.276201 -0.088269 0.294003 0.212450 -0.129222 -0.083039 -0.126994 -0.207670 -0.162997 -0.194443 0.427249 0.409631 0.018988 0.311705 0.352058 0.035766 -0.329016 0.104475 -0.146050 -0.120457 -0.319337 -0.200864 0.326420 -0.015271 -0.352617 -0.003143 -0.044829 0.204792 -0.345616 0.071609 -0.084258 0.094762 0.087269 -0.349967 0.109513 0.004750 0.002152 -0.034655 0.213226 0.289311 0.289020 -0.053896 -0.083441 0.136817 0.309881 0.039607 
mm11 -0.046742 0.000696 0.225904 -0.054489 0.049486 -0.154328 0.365880 -0.051769 -0.207878 -0.096521 0.028002 -0.118872 -0.273355 -0.287617 0.227263 0.285675 0.160594 0.156070 0.095322 -0.035408 -0.333058 0.067535 -0.298880 0.086472 -0.329558 -0.119087 0.379122 -0.061449 -0.197330 0.076805 0.017364 0.221817 -0.133897 -0.104280 -0.363264 -0.151218 -0.041716 -0.243571 0.026032 0.068836 -0.031578 0.036707 0.041423 0.090977 0.291365 -0.135952 -0.151939 0.093834 0.171211 -0.034251 
